%YAML:1.0
---
my_detector: !!opencv-object-detector-hog
   winSize: [ 64, 128 ]
   blockSize: [ 16, 16 ]
   blockStride: [ 8, 8 ]
   cellSize: [ 8, 8 ]
   nbins: 9
   derivAperture: 1
   winSigma: 4.
   histogramNormType: 0
   L2HysThreshold: 2.0000000000000001e-01
   gammaCorrection: 1
   nlevels: 64
   signedGradient: 0
   SVMDetector: [ 1.10303964e-02, -3.77223565e-04, -2.64831726e-03,
       -3.15556489e-03, -5.05690556e-03, -9.34035704e-03,
       -9.39235277e-03, -2.70731235e-03, 8.69639311e-03, 9.96230356e-03,
       -1.61694328e-03, -3.47362109e-03, -3.26197152e-03,
       -1.73325709e-03, -1.24012223e-02, -1.07750455e-02,
       -4.74286359e-03, 7.58229056e-03, 2.31402926e-03, -5.60209900e-03,
       -7.87698571e-03, -3.99924768e-03, -2.70336703e-03,
       -6.65167440e-03, -5.25361113e-03, -5.87758336e-07, 8.44398793e-03,
       6.30673545e-04, -2.88346643e-03, -5.14830183e-03, -3.40098049e-03,
       -1.21363322e-03, -1.23597840e-02, -7.24619534e-03,
       -3.64849111e-03, 2.22515617e-03, 1.15652131e-02, -8.29889381e-04,
       -3.37051461e-03, -3.82324471e-03, -1.02288751e-02,
       -9.50539671e-03, -9.18699801e-03, -4.60314890e-03, 7.16607599e-03,
       1.63102150e-02, 1.61763933e-03, -8.04756954e-03, -5.13568940e-03,
       -5.36219217e-03, -1.07241087e-02, -4.90456261e-03,
       -2.59930594e-03, 1.06900046e-02, -1.39480690e-04, -1.66803598e-03,
       -4.70250705e-03, -2.97831744e-03, -5.22229914e-03,
       -8.47534742e-03, -4.43573808e-03, -3.73623124e-03,
       -2.81581772e-04, 4.34297137e-03, 3.41138034e-03, -4.50374000e-03,
       -6.19342318e-03, -1.24277372e-03, -8.56350362e-03,
       -2.28022487e-04, -8.58505664e-04, 9.58882272e-04, 9.64843854e-03,
       7.37184833e-04, -7.45761674e-03, -4.23627719e-03, -1.06439702e-02,
       -9.77000222e-03, -6.00616075e-03, -1.93492870e-03, 7.83073623e-03,
       9.47924983e-03, -4.44419769e-04, -5.81702264e-03, 1.40849815e-03,
       -7.93512538e-03, -3.21911206e-03, -2.95028416e-03,
       -3.64779448e-03, 9.00525320e-03, -3.15648527e-03, 3.65262781e-03,
       -3.37894657e-03, -7.85619859e-03, -6.07294915e-03,
       -3.64435487e-03, 2.21756403e-03, 2.13762186e-03, -3.39789339e-03,
       -5.81971079e-04, 6.23242883e-03, 1.36403961e-03, -2.62061856e-03,
       1.06685655e-03, 2.58622109e-03, 4.77944175e-03, 5.63484011e-03,
       -1.91390421e-03, 9.29669570e-03, -4.54879570e-04, -3.52951139e-03,
       -8.33260186e-04, -7.63841858e-03, -3.97409499e-03,
       -3.69067583e-03, -6.08928828e-03, 7.51047768e-03, 1.47863207e-02,
       6.76735025e-03, -1.63526551e-04, 2.81723961e-03, 5.12811262e-03,
       -3.81992577e-04, -1.53118733e-03, -5.54566598e-03, 1.05443681e-02,
       -4.47752560e-03, 4.54466371e-03, 4.91608444e-05, -2.15664553e-03,
       -1.32139912e-03, 1.54656498e-03, 2.04373756e-03, -2.50726682e-03,
       -6.74543623e-03, 2.76345131e-03, 4.70864493e-03, 3.62505112e-03,
       2.66350852e-03, 5.33979386e-03, 1.42601284e-03, -1.28035503e-03,
       -2.95244087e-03, 1.26657728e-03, 1.40168667e-02, 4.51351656e-03,
       -1.74840121e-03, 8.38980428e-04, 4.94636083e-03, -9.35026852e-04,
       -1.95556297e-03, -4.70791757e-03, 1.03152404e-02, 1.65727623e-02,
       1.27078767e-03, -5.02467761e-03, -3.62400385e-03, -1.06742177e-02,
       -2.14202679e-03, -3.25447624e-03, -1.12366735e-03, 1.55160353e-02,
       2.91346386e-03, 2.63142982e-03, 9.13409574e-04, 4.67419959e-05,
       1.37074455e-03, -2.83737504e-03, -4.11134120e-03, -4.27164696e-03,
       -6.82075988e-05, 5.64117683e-03, 2.42506925e-04, -1.23580918e-03,
       -1.14532351e-03, -8.38652626e-03, -9.08470433e-03,
       -7.40620168e-03, -4.80346754e-03, 4.76295361e-03, 1.32780932e-02,
       -2.83729925e-04, -6.18148968e-03, -4.58150124e-03,
       -1.02309985e-02, -2.26650783e-03, -3.61046032e-03,
       -3.60489311e-03, 1.10171819e-02, 9.08076577e-03, 1.33398606e-03,
       -1.79765688e-03, -4.70074452e-03, -7.45946635e-03,
       -2.33570905e-03, -5.08228783e-03, -4.37435694e-03, 6.58522081e-03,
       7.52707385e-03, 3.71494517e-03, -3.49916075e-03, -2.18520453e-03,
       -7.35043595e-03, -4.97636013e-03, -5.95181901e-03,
       -6.78446470e-03, 6.99226232e-03, 9.52024851e-03, -2.72147649e-04,
       -5.67322923e-03, -4.26308811e-03, -9.70069971e-03,
       -3.17460927e-03, -5.64653520e-03, -7.13307643e-03, 6.88532740e-03,
       1.74981018e-03, -6.02887198e-03, -3.59969866e-03, -5.64033049e-04,
       -2.37228791e-03, 1.73466175e-03, -4.10526758e-03, -4.47584316e-03,
       2.74552824e-03, -7.94045569e-04, -6.62449980e-03, -9.92944930e-04,
       4.21644095e-03, -3.75557900e-03, 2.08835048e-03, -3.23847379e-03,
       -3.40718240e-03, -2.55044113e-04, 5.97516680e-03, -1.11159710e-02,
       -8.48927815e-03, -1.86488323e-03, -5.24827978e-03, 1.20998523e-03,
       -3.99646070e-03, -5.16639184e-03, 4.93832398e-03, 5.33451559e-03,
       -1.13801798e-02, -6.48578955e-03, 1.61579880e-03, -5.23649668e-03,
       -2.91245780e-03, -5.64350234e-03, -7.57521018e-03, 4.11544926e-03,
       4.72573825e-04, -2.60589342e-03, 5.42528054e-04, 6.35365024e-03,
       -4.92871832e-03, 5.22722024e-04, -4.88913525e-03, -4.20899782e-03,
       1.12233299e-03, 2.06800851e-05, -3.03496537e-03, -1.29130646e-03,
       -2.30254559e-03, -4.90371510e-03, -4.79685795e-03,
       -6.87105255e-03, -6.33575208e-03, 1.36496761e-04, 1.02207912e-02,
       -5.59723284e-03, -3.68530955e-03, 2.35300628e-03, -6.17816672e-03,
       -4.81136469e-03, -8.38716794e-03, -7.78741157e-03, 1.25264451e-02,
       1.21414484e-02, -9.95249022e-03, -6.92407787e-03, -6.35073055e-03,
       -7.48397363e-03, -9.67368484e-03, -1.07465023e-02,
       -3.86289065e-03, 1.30465422e-02, -1.81933725e-03, -3.05816007e-04,
       7.98148627e-04, -1.09046500e-03, 2.17440771e-03, -3.97567963e-03,
       -7.86211062e-03, -5.74253639e-03, -3.27854557e-03,
       -4.02613729e-03, -9.90125234e-04, 1.29087362e-03, 2.44685169e-03,
       3.55382753e-03, -1.02466636e-03, -5.42296981e-03, -5.52300829e-03,
       -2.29611658e-04, 7.98613857e-03, -7.87136145e-03, -5.68556692e-03,
       -5.01025142e-03, -8.46520416e-04, -7.29813287e-03,
       -9.52813961e-03, -3.18162190e-03, 1.14771593e-02, 6.48072874e-03,
       -7.20887072e-03, -5.88390930e-03, -4.27581277e-03, 2.01849965e-03,
       -4.71571134e-03, -3.09325894e-03, 5.14037488e-03, 1.07506793e-02,
       -1.96369263e-04, -1.98732340e-03, -7.58480863e-04,
       -3.56382574e-03, -4.61035036e-03, -6.97924104e-03,
       -7.64823984e-03, -3.08179599e-03, 3.82678374e-03, 7.88391754e-03,
       2.95858225e-03, 1.39439828e-03, 2.50777253e-03, 2.42228829e-03,
       -6.39746571e-03, -3.12445080e-03, 3.45738721e-03, 7.06491061e-03,
       3.49504757e-03, -7.14072771e-03, -6.05698349e-03, -9.63694416e-03,
       -4.92496090e-03, -1.08063798e-02, -2.64042435e-04, 3.89400683e-03,
       1.24553768e-02, 4.83606569e-03, -4.34782635e-03, -1.50694244e-03,
       -9.98859527e-04, 1.97911193e-03, -9.67759360e-03, -7.50955951e-04,
       8.32276046e-03, 1.00615285e-02, 2.58239522e-03, -2.42152112e-03,
       -2.22781906e-03, 2.49515928e-04, -4.73228574e-04, -2.46341829e-03,
       1.63092243e-03, 5.04232105e-03, 6.23937743e-03, 1.86532838e-04,
       -5.22218132e-03, -5.70217147e-03, -7.43349735e-03,
       -1.05265239e-02, -6.28313329e-03, -3.42171930e-04, 2.96926359e-03,
       5.12998039e-03, -1.33473217e-03, -7.35741947e-03, -4.47333744e-03,
       2.69294064e-03, 4.97081038e-03, -1.83845137e-03, 3.36465565e-03,
       8.78077839e-03, 5.31337596e-03, -5.18138567e-03, -7.37453019e-03,
       -3.05801677e-03, -3.69365118e-03, -7.01370090e-03,
       -6.62661204e-03, 3.83568020e-03, 8.80439021e-03, 3.80645087e-03,
       2.54883640e-03, -5.40466805e-04, -2.15881225e-03, -4.84009739e-03,
       -1.51225561e-02, -4.38439101e-03, 3.30803008e-03, 5.71152801e-03,
       4.82657505e-03, 8.54451500e-04, 9.93066817e-04, 1.57521502e-03,
       -3.89999004e-05, -4.88949660e-03, -2.12502223e-03, 6.41387887e-03,
       3.98614537e-03, 4.12451569e-03, -2.19677971e-03, -2.99739186e-03,
       -1.58970314e-03, -2.34320806e-03, -7.44106807e-03,
       -1.74559338e-03, 7.56179169e-03, 1.15949931e-02, 4.56473650e-03,
       -4.13462706e-03, -8.30599980e-04, 3.26157990e-03, 6.96380390e-03,
       1.09161867e-03, 6.96737645e-03, 6.04478875e-03, 8.18500295e-03,
       1.75512221e-04, -2.21515028e-03, -1.36298337e-03, 3.32185044e-03,
       2.16237153e-03, -9.92764602e-04, -4.39339317e-03, 3.57823074e-03,
       1.84804597e-03, 4.54501947e-03, -9.53968847e-05, -2.20715627e-03,
       -1.95339788e-03, 6.00225118e-04, -3.61423474e-03, -1.22377311e-03,
       2.41087959e-03, 1.51115097e-03, 1.91237999e-03, -6.09766645e-03,
       -5.48000644e-05, 3.26448050e-03, 1.01358704e-02, 1.01913568e-02,
       2.99482723e-03, 1.00096141e-03, 2.74948007e-03, -1.48103386e-03,
       -3.48735298e-03, -2.43708538e-03, 2.60922476e-03, 7.23578781e-03,
       5.35064843e-03, -1.94016180e-03, -3.98550648e-03, -7.63592892e-04,
       -1.78793818e-03, 1.60992518e-03, -8.68614297e-04, -1.21561182e-03,
       -4.76492569e-04, 1.28584169e-03, 2.39382731e-03, 4.42600111e-03,
       -3.54596297e-04, 3.57943005e-04, 1.21107572e-04, 6.14860444e-04,
       5.71400102e-04, 8.22570990e-04, -2.16593826e-03, 2.39375373e-03,
       4.75663599e-03, 2.15822528e-03, -5.66291565e-04, -1.43423153e-03,
       -1.37008401e-03, 2.54435162e-03, 2.98471446e-03, 4.75592865e-03,
       -9.39315883e-04, 3.93478316e-04, -1.95643865e-03, -2.85074953e-03,
       1.74221525e-04, -5.21181803e-03, -3.89852910e-03, 4.74796025e-03,
       1.98667349e-05, 1.36233502e-04, 6.18335884e-03, 8.51544319e-04,
       -2.25846586e-03, 2.75879866e-03, 4.07828309e-04, 9.48644069e-04,
       -2.84621899e-04, -8.76106881e-03, -2.55385344e-03, 3.24504310e-03,
       5.89248585e-03, 4.45130980e-03, 5.99296391e-03, 3.46371881e-03,
       5.14595956e-03, 2.98755500e-03, -6.21754630e-03, -3.43770604e-03,
       3.43322544e-03, 2.55005388e-03, 7.99473468e-03, 8.49931152e-04,
       -3.90688609e-03, -2.44046422e-03, 3.79697187e-04, -9.03756358e-03,
       -2.45107175e-03, 4.82237712e-03, 5.88861620e-03, 4.66141663e-03,
       2.20224261e-04, 1.96056688e-04, 1.49551977e-03, -7.32156797e-04,
       -7.55409524e-03, -2.79712072e-03, 5.18304436e-03, 2.02020374e-03,
       3.77998385e-03, -7.46455556e-03, -5.91605157e-03, -6.29495876e-03,
       -6.22980297e-04, 1.00427144e-03, -1.68495707e-03, -2.10248632e-03,
       1.07373972e-03, -1.01800414e-03, -7.45258853e-03, -3.10657965e-03,
       -5.70406299e-03, -4.09610057e-03, 6.38953177e-03, -4.82602371e-03,
       -4.72380035e-03, -2.61115190e-03, -6.24768110e-03,
       -1.57111092e-03, -2.12762249e-03, -1.48835371e-03, 1.76693592e-03,
       4.45843674e-03, 1.72336970e-03, -1.98673434e-03, -5.92233497e-04,
       1.64735568e-04, -4.34824685e-03, 4.50285338e-03, 9.59462777e-04,
       -1.82002061e-03, 4.51663882e-03, 2.48515658e-04, -3.29901138e-03,
       -3.40977241e-03, -1.81917928e-03, -6.13006391e-03,
       -4.81752766e-04, -5.31097082e-03, -1.34319230e-03,
       -3.70723079e-04, -3.67410714e-03, -3.96918645e-03,
       -4.38911607e-03, -6.15254138e-03, -3.00236465e-03, 3.96829657e-03,
       5.73178288e-04, -3.59269255e-03, -6.30540308e-04, -1.86181394e-03,
       1.07666024e-03, -7.24447193e-04, -5.59664425e-03, -5.36479009e-03,
       5.60928462e-03, 1.42675289e-03, -3.61615629e-03, -5.17346722e-04,
       9.34371434e-04, -6.14632061e-03, -6.91656768e-03, -8.18286743e-03,
       -1.60252512e-03, 9.82130598e-03, 6.96093030e-03, -8.70004704e-04,
       1.60904066e-03, 1.70916595e-04, -3.35576385e-03, -4.32202918e-03,
       -6.43704925e-03, -7.80062471e-03, 2.71908636e-03, 1.19889228e-04,
       -8.05832352e-03, -3.28139239e-03, -1.48188765e-03, 8.00570357e-04,
       2.02843989e-03, -8.13844521e-03, -8.84043053e-03, 3.44420085e-03,
       -8.03824296e-05, -7.99123105e-03, 1.52123382e-03, 3.22694751e-03,
       3.85026587e-03, 5.47124818e-03, -7.28936773e-03, -4.04894864e-03,
       9.24230274e-03, 5.57243545e-03, -4.55457717e-03, -3.32415686e-03,
       -3.26961023e-03, -7.60687841e-03, -4.49776184e-03,
       -8.47635698e-03, 2.60543590e-03, 1.60377417e-02, 1.34801744e-02,
       -5.97937498e-03, -4.46855882e-03, -2.12506996e-03,
       -6.65356452e-03, -2.74171215e-03, -6.11847127e-03,
       -1.00746360e-02, 3.15543357e-03, -1.97259986e-04, -3.53284669e-03,
       -1.35942490e-03, 2.04374478e-03, -5.38938271e-04, -1.99387246e-03,
       -1.05318585e-02, -7.74317014e-04, 8.70358106e-03, -7.37083843e-04,
       -5.48863830e-03, -2.61058658e-03, -1.40740315e-03,
       -3.31689534e-03, -2.67740479e-03, -7.14870961e-03, 2.47046817e-03,
       2.10865401e-02, 1.39348954e-02, -5.66437561e-03, -5.67479851e-03,
       -4.48079361e-03, -9.99882538e-03, -5.99212898e-03,
       -1.15381125e-02, 8.78161285e-03, 2.51085423e-02, 1.04909949e-02,
       -6.98018074e-03, -9.26333200e-03, -6.34984486e-03,
       -7.13095302e-03, -5.37703326e-03, -4.02777083e-03, 2.48618494e-03,
       1.43485805e-02, 5.23520866e-03, -6.78376108e-03, -4.05002851e-03,
       -5.54978941e-03, -5.64390747e-03, -5.15863253e-03,
       -4.87084407e-03, 2.39772978e-03, 1.36423605e-02, 9.68738366e-03,
       -4.81351279e-03, -8.72657076e-03, -1.04041919e-02,
       -9.71375220e-03, -9.44983214e-03, -2.53751036e-03, 5.40842628e-03,
       2.55592186e-02, 1.13685690e-02, -8.57610162e-03, -1.00290477e-02,
       -8.85494985e-03, -6.28021220e-03, -6.98838104e-03,
       -7.99177773e-03, 2.47868523e-03, 1.69764161e-02, 1.23493318e-02,
       -4.89110406e-03, -5.07985288e-03, -6.54747011e-03,
       -4.44708671e-03, -7.68786529e-03, -1.03368312e-02, 3.46610090e-03,
       1.19735366e-02, 5.02633350e-03, -2.03732238e-03, -8.28580000e-03,
       -6.77449768e-03, -8.08221661e-03, -9.01513826e-03,
       -2.52058939e-03, 5.81596419e-03, 1.20897209e-02, 1.52241540e-04,
       -5.36503177e-03, -1.22047300e-02, -8.18322506e-03,
       -9.95850284e-03, -9.95875709e-03, 2.82988907e-03, 9.69156681e-04,
       1.18921800e-02, 9.28989798e-03, -3.86568572e-04, -4.93930886e-03,
       -2.80132471e-03, -1.36634090e-03, -3.92549718e-03,
       -9.84083954e-03, 4.20670584e-03, 1.18825398e-02, 1.40452944e-03,
       -3.59675381e-03, -2.13197176e-03, -2.96939001e-03,
       -1.50735921e-03, -7.21534961e-05, 1.25564518e-03, 6.06639357e-03,
       -5.84109337e-04, -4.78664972e-03, -4.10325266e-03,
       -8.74213409e-03, -4.01736284e-03, -7.38536660e-03,
       -4.25522402e-03, 3.96754127e-03, 5.22039644e-03, -4.68747504e-03,
       -5.29740984e-03, -1.53718248e-03, -6.63028052e-03,
       -6.71202410e-03, -6.61104219e-03, -3.54847056e-03, 6.23880606e-03,
       6.20741211e-03, -9.37456614e-04, -4.67069307e-03, -4.28021979e-03,
       -5.73068717e-03, -3.81227210e-03, -6.84619590e-04, 5.88836614e-04,
       4.28153202e-03, 3.87402833e-03, -8.29755212e-04, -1.16473716e-03,
       -4.24123090e-03, -5.20773791e-03, -4.71665384e-03, 5.69070224e-04,
       2.44758627e-03, 3.72745167e-03, 9.16733779e-03, -6.33992534e-03,
       -6.69445097e-03, -3.26443510e-03, -3.92567553e-03,
       -7.17850076e-03, -6.69763843e-03, -4.90149995e-03, 7.65514933e-03,
       7.63982441e-03, -1.21011781e-02, -7.96349347e-03, -6.47436408e-03,
       -7.20724277e-03, -6.14529615e-03, -1.74951088e-03, 5.68179507e-03,
       5.92225138e-03, 5.94065804e-03, -5.63348830e-03, -6.24942547e-03,
       -5.96237602e-03, -5.91922272e-03, -7.63182389e-03,
       -4.33524896e-04, 5.32467896e-03, 5.25294291e-03, 1.98721839e-03,
       -8.51028226e-03, -7.23396521e-03, -7.78234890e-03,
       -1.66984403e-03, -6.07686210e-03, 5.23294974e-03, 1.17043359e-02,
       4.19013947e-03, 3.29090096e-03, -1.01597616e-02, -4.91252169e-03,
       -4.60373377e-03, -3.33830994e-03, -4.90656961e-03,
       -8.26293661e-04, 5.23992488e-03, 5.38310967e-03, 1.22221070e-03,
       -7.67117180e-03, -3.59033956e-03, -4.39749472e-03,
       -1.12476596e-03, -6.28110161e-03, -2.07977020e-04, 5.63914562e-03,
       7.55168078e-03, 2.42039398e-03, -8.16561375e-03, -3.04187206e-03,
       -1.71633449e-03, 4.51057637e-03, -7.76542583e-04, 7.78820738e-03,
       1.03993285e-02, 3.95354908e-03, -4.66633792e-04, -8.98137409e-03,
       -1.76845305e-03, -4.52187704e-03, -2.16202228e-03,
       -7.94947427e-03, 1.61308050e-03, 3.72015429e-03, 2.95243622e-03,
       1.10736801e-04, -5.48953936e-03, -2.39327038e-03, -5.13265701e-03,
       -3.48485843e-03, -1.09718917e-02, 2.83682253e-03, 9.54909716e-03,
       9.80136730e-03, 1.40227831e-03, -6.03778893e-03, -4.89286985e-03,
       -2.35210336e-03, 1.24565850e-03, -7.38839526e-03, 2.92590773e-03,
       1.05956327e-02, 9.61289834e-03, 9.10491333e-04, -3.89674236e-03,
       -2.61982018e-03, -6.01467397e-03, -7.98477326e-03,
       -1.18662063e-02, -1.00407610e-03, 3.70231154e-03, 4.80244076e-03,
       -2.25073821e-03, -3.43530206e-03, -4.32051765e-03,
       -6.93434477e-03, -4.61067958e-03, -8.46582372e-03, 1.15095533e-03,
       4.03674133e-03, 3.03537888e-03, -3.50918435e-03, -4.79475874e-03,
       -3.35479295e-03, 1.24198885e-03, 8.03912245e-03, -1.16266368e-03,
       6.75794249e-03, 1.80265419e-02, 8.82724766e-03, -8.09479691e-03,
       -6.76778331e-03, -1.93365721e-03, -4.73301997e-03,
       -5.26306080e-03, -8.27530958e-03, 8.49903282e-03, 1.49330581e-02,
       6.40702248e-03, -6.45415019e-03, -4.16503521e-03, -1.18513126e-03,
       -3.27253132e-03, 2.66947690e-03, -8.37356504e-03, 7.15939514e-03,
       1.07103502e-02, 1.94917526e-03, -1.21820113e-02, -7.32797105e-03,
       -5.07935509e-03, -1.07034268e-02, -1.16911680e-02,
       -1.66302007e-02, 7.05597084e-03, 1.46445930e-02, 1.12031194e-04,
       -8.59904569e-03, -5.25924005e-03, -2.60895817e-03,
       -4.46679909e-03, -6.10655267e-03, -4.50017350e-03, 7.40985852e-03,
       1.61520988e-02, 4.17997129e-03, -9.20296181e-03, -3.85483261e-03,
       -2.20837872e-04, 2.86852242e-03, 5.54790953e-03, 7.41042616e-03,
       5.58698038e-03, 1.05043715e-02, 1.17336400e-03, -1.16113182e-02,
       -7.66861346e-03, -6.32949406e-03, -8.89609940e-03,
       -1.44997193e-02, -1.19378017e-02, 1.30883344e-02, 1.98102146e-02,
       4.14165575e-03, -1.30409505e-02, -7.84725603e-03, -5.01690852e-03,
       -3.35191190e-03, -6.63664099e-03, 1.80161174e-03, 1.32580698e-02,
       1.88468583e-02, 3.75821139e-04, -8.62753112e-03, -2.72660726e-03,
       -1.04095077e-03, 2.21866579e-03, 7.66231818e-03, 4.56324872e-03,
       3.20197694e-04, 4.74560587e-03, -1.67174684e-03, -4.41240799e-03,
       -2.30226549e-04, 3.94644623e-04, 9.10634466e-04, 1.65290886e-03,
       -2.84259743e-03, -4.01761988e-03, -1.97242713e-03,
       -3.06054484e-03, -9.89662483e-03, -2.55827955e-03, 2.65666778e-04,
       1.76177872e-03, 5.02194464e-03, 5.99299837e-03, 1.02881631e-02,
       1.03151156e-02, -7.08992477e-04, -1.31483842e-03, -2.24641105e-03,
       -2.97038467e-03, -1.60761061e-03, -2.09034071e-03,
       -1.93130341e-03, 5.67480782e-03, 4.51600738e-03, 3.25504900e-03,
       -9.23756626e-04, 3.88623145e-03, 2.90861446e-03, 1.43523654e-03,
       7.51496234e-04, -3.36475670e-03, -2.62916856e-03, -3.30489222e-03,
       -2.40651704e-03, -2.69510550e-04, -1.61932700e-03,
       -1.99439074e-03, -1.43826866e-04, -2.28538690e-03,
       -1.46057853e-03, 3.86511744e-03, 2.26803479e-07, -3.88665218e-03,
       3.43095954e-03, 2.96474295e-03, 7.36300601e-04, -5.52423717e-03,
       -4.45610983e-03, -1.02280220e-03, 7.54403695e-03, 6.26467261e-03,
       6.21994585e-03, 2.74346210e-03, -1.28504506e-03, -1.56200945e-03,
       -7.48854072e-04, 1.76380342e-03, 4.16788971e-03, 1.02137551e-02,
       6.68683322e-03, 3.68025457e-03, -2.06757453e-03, -4.67759697e-03,
       -2.95270304e-03, -3.37705063e-03, -9.85230133e-03,
       -1.60612888e-03, 3.50705441e-03, 2.64234631e-03, -4.07132058e-04,
       -1.41346711e-03, -2.48181226e-04, 9.44949919e-04, -4.16300073e-03,
       -7.14930799e-03, -1.88162038e-03, 3.24672554e-03, 2.00289325e-03,
       -1.09757553e-03, 1.71350595e-03, 5.26065123e-04, 3.50932329e-04,
       -1.78566668e-03, -4.14485438e-03, 2.08874047e-03, 5.81356511e-03,
       4.93725669e-03, 2.19184230e-03, 7.46103236e-03, 7.27737602e-03,
       5.34353778e-03, -4.84271348e-03, -6.27706572e-03, -1.35448528e-03,
       2.91137933e-03, 3.62223666e-03, 6.36006892e-03, -3.05143837e-03,
       -2.13468075e-03, 1.24440819e-03, 4.09197109e-03, 5.12778526e-03,
       -2.48594489e-03, -7.75209721e-03, -7.17018079e-03,
       -3.32549307e-03, -3.93219665e-03, 2.64612888e-03, 1.31250708e-03,
       -2.11988599e-03, 6.11945987e-03, 2.50653224e-03, -2.08710134e-03,
       -4.52987151e-03, -1.99726643e-03, -6.46888418e-03,
       -4.75833658e-03, 8.36991647e-04, 3.23887938e-03, 1.01194531e-02,
       -2.71957633e-05, -4.76151286e-03, -7.62112951e-03,
       -7.16951070e-03, -3.17029376e-03, -7.92089617e-04,
       -8.62985966e-04, 3.70991626e-03, 1.10916104e-02, 2.97038932e-03,
       -2.90291267e-03, -3.79747921e-03, -5.42592630e-03,
       -5.86268539e-03, -6.63016806e-04, -3.30495625e-03,
       -6.27333811e-03, -6.58839999e-04, 1.47972757e-03, -1.14114548e-03,
       -2.50468939e-03, -6.07782044e-03, -2.48337653e-03, 6.14051428e-03,
       4.98305634e-03, -7.88439473e-04, 6.58582803e-03, -4.16459428e-04,
       -4.71189106e-03, -3.53431772e-03, -5.90086542e-03,
       -2.18254887e-03, -2.06893589e-03, -1.82025216e-03,
       -3.41122541e-05, 2.23923381e-03, 4.27425548e-04, -2.19950057e-03,
       -2.79126037e-03, -4.40375879e-03, -4.89155413e-04, 4.22332622e-03,
       3.07325344e-03, 5.62996278e-03, 6.28824532e-03, -2.44150846e-03,
       -4.42263484e-03, -5.04515180e-03, -7.38591407e-05, 2.08323752e-03,
       1.61284059e-02, 1.58854797e-02, -1.99350598e-03, 4.25300607e-03,
       -6.46991748e-03, -1.23193944e-02, -8.62680934e-03,
       -6.60918001e-03, 3.28505738e-03, 2.41628103e-02, 1.79955196e-02,
       -9.48711485e-03, -5.45759406e-03, -1.07238572e-02,
       -1.34534286e-02, -9.76654328e-03, -8.09890404e-03,
       -9.02969856e-03, 1.04660280e-02, 5.87847689e-03, 2.09450210e-03,
       1.23733813e-02, -9.11922380e-03, -1.49013279e-02, -1.03547834e-02,
       -1.04855532e-02, -8.54510348e-03, 1.02017047e-02, 2.44818744e-03,
       -5.87573973e-03, 4.08623740e-03, -1.69666484e-02, -1.69545487e-02,
       -1.48430476e-02, -1.32487584e-02, 1.86574124e-02, 3.27252485e-02,
       2.39166468e-02, -9.86539107e-03, -7.95549434e-03, -9.31939948e-03,
       -1.03110531e-02, -6.92508742e-03, 5.52594312e-04, 1.16193993e-02,
       2.72576027e-02, 1.42754354e-02, -8.97969678e-03, -5.38973417e-03,
       -6.41060295e-03, -4.58904915e-03, -4.75841621e-03,
       -2.23003305e-03, -6.12616818e-03, 6.24606479e-03, 1.33556954e-03,
       -8.16612784e-03, 4.61922697e-04, -1.44641502e-02, -1.69593245e-02,
       -1.47811649e-02, -8.25847778e-03, -1.36117134e-02,
       -7.69453356e-03, -9.12145898e-03, -9.60610993e-03, 1.01823779e-03,
       -7.79622886e-03, -1.27806105e-02, -1.22756232e-02,
       -9.76874214e-03, 8.79246928e-03, 2.01290734e-02, 1.18708080e-02,
       -6.04883535e-03, -7.65590230e-03, -7.36366073e-03,
       -3.48844053e-03, -2.49086390e-03, -1.90673315e-03, 6.25041360e-03,
       1.53198577e-02, 1.09404903e-02, -5.26254764e-04, 4.42572404e-03,
       1.08661433e-03, 3.16456845e-03, 2.08250131e-03, -1.24203099e-03,
       -1.31654590e-02, -6.44853665e-03, -9.39190015e-03,
       -8.98385700e-03, -7.80714117e-03, -1.06465835e-02,
       -9.94735770e-03, -9.40547884e-03, -7.95763917e-03,
       -1.08936271e-02, -3.58738983e-03, -1.40279927e-03,
       -2.24942691e-03, 1.42936502e-03, -1.42381294e-03, 2.07280638e-04,
       -4.03803773e-03, -1.01092625e-02, 5.04676020e-03, 1.04200700e-02,
       7.15400884e-03, -3.02424678e-03, -6.22184528e-03, -1.81463780e-03,
       7.58650131e-04, 5.10494574e-04, -1.52376015e-03, 5.27817709e-03,
       7.43576884e-03, 1.55905099e-03, -6.44974876e-03, -1.08508999e-03,
       2.42575377e-04, 2.55759573e-03, 5.72682638e-03, 3.20287584e-03,
       -1.94676581e-03, 5.51374338e-04, -1.08051545e-03, -4.90330858e-03,
       -1.00248754e-02, -4.70284140e-03, -2.16148188e-03,
       -9.71248315e-04, -3.49572371e-03, 3.17970966e-03, 4.03966522e-03,
       -2.95406120e-04, -6.81098131e-03, -3.19602514e-05,
       -5.64722344e-03, -1.20516808e-03, 4.06289101e-03, 5.83861675e-03,
       2.98151164e-03, -9.41933226e-03, -6.89685810e-03, -4.51044273e-03,
       -4.26524645e-03, -1.79995596e-03, -1.43514329e-03, 8.12654325e-04,
       5.41801704e-03, 7.42009748e-03, -7.08620995e-03, -3.18158627e-03,
       -5.24449337e-04, -1.69623410e-03, -4.45115007e-03, 1.70307828e-03,
       4.30094497e-03, 1.04121026e-02, 3.44086508e-03, -8.41830019e-03,
       -8.39129370e-03, -6.12652814e-03, -4.91048116e-03,
       -6.75459811e-03, -4.49904287e-03, -4.63111605e-03, 8.14837310e-03,
       8.09861440e-03, -9.98451840e-03, -7.77670462e-03, -5.71330637e-03,
       -6.57918304e-03, -5.87719446e-03, -7.28448201e-03,
       -3.54961352e-03, 9.20073781e-03, 6.60588872e-03, -6.87278947e-03,
       -5.40058594e-03, -3.91955813e-03, -4.42008255e-03,
       -6.64101215e-03, -6.81411475e-04, 7.06929294e-03, 1.22739356e-02,
       6.20440906e-03, -3.79402190e-03, -4.23871353e-03, -5.04764402e-03,
       -1.41743396e-03, -5.62487543e-03, -6.84386527e-04, 7.46858492e-03,
       8.95022601e-03, 7.33257690e-03, -1.12872953e-02, -8.43345746e-03,
       -8.02915730e-03, -9.49247181e-03, -7.41077447e-03,
       -8.97043478e-03, -7.24082114e-03, 8.79325159e-03, 3.53690423e-03,
       -8.43328703e-03, -7.01615913e-03, -1.07926223e-02,
       -8.66194908e-03, -7.10143195e-03, -1.01583153e-02,
       -3.88184516e-03, 4.81784809e-03, 5.23174088e-03, -2.47797841e-04,
       9.57056414e-04, -2.45721731e-03, 7.10065244e-04, -3.03542661e-03,
       -4.95061860e-04, 3.41205811e-03, 8.69162939e-03, -1.02742272e-03,
       -5.81965968e-03, -8.26122065e-04, -3.84968822e-03,
       -4.59897518e-03, -8.02927744e-03, -3.29638948e-03, 6.33236778e-05,
       2.28077383e-03, 5.51025616e-03, -7.81530864e-04, -2.23330851e-03,
       -6.77743601e-03, -4.07509366e-03, -3.46528180e-03,
       -4.60101804e-03, 9.43294901e-04, 6.68329885e-03, 2.82398920e-04,
       -7.72277638e-03, -5.66645665e-03, -7.24129425e-03,
       -4.34210012e-03, -6.97743893e-03, -2.52404436e-03,
       -1.37382839e-03, 8.01532646e-04, 2.74612731e-03, -1.64011726e-05,
       2.37288047e-03, -3.25957895e-03, 1.85739729e-04, -8.60821083e-03,
       -6.04608504e-05, 4.72803460e-03, 5.56854298e-03, -1.78736832e-03,
       1.90994772e-03, -2.12937291e-03, -7.63978949e-03, -5.91741363e-03,
       -9.40576196e-03, 5.89821115e-03, 9.84642748e-03, 5.93310874e-03,
       -2.74992024e-04, -4.81173862e-03, -2.26169662e-03,
       -2.93001719e-03, 7.63602264e-04, -8.67293961e-03, 1.30125671e-03,
       2.25709425e-03, 1.43844704e-03, -7.21171172e-03, -2.06163037e-03,
       -2.99974787e-03, -6.14942377e-03, -8.33717268e-03,
       -8.97790771e-03, 1.37432071e-04, 1.43534876e-03, -6.63031917e-03,
       -7.24294630e-04, 2.40620133e-03, 2.08797422e-03, -2.24424549e-03,
       9.40348778e-04, -6.20826101e-03, 1.23687843e-02, 2.08269097e-02,
       6.98876660e-03, -6.59501506e-03, -5.49705280e-03, -3.97645496e-03,
       -6.76669227e-03, -1.01620601e-02, -1.62496995e-02, 1.48909716e-02,
       2.07479764e-02, 4.55816789e-03, -9.15817264e-03, 9.37062083e-04,
       1.38514838e-03, -5.44877723e-04, -1.75804103e-04, -2.47542583e-03,
       6.02916861e-03, 8.41380842e-03, -7.29091465e-03, -1.51243638e-02,
       -5.64712472e-03, -5.02196141e-03, -6.36154460e-03,
       -7.47839967e-03, -1.23063410e-02, 2.81890825e-04, 8.03109072e-03,
       -1.02626020e-02, -6.75565377e-03, -7.09129684e-03,
       -4.52989060e-03, -9.47768707e-03, -7.40208989e-03,
       -1.32940020e-02, 1.61441471e-02, 2.22661663e-02, 3.40539729e-03,
       -4.50300705e-03, -6.44510146e-03, -2.14461517e-03,
       -4.18076664e-03, 1.21747353e-03, 6.63754472e-04, 2.13611256e-02,
       2.68810224e-02, 8.99897888e-03, -1.00294659e-02, -5.66579215e-03,
       -4.00349591e-03, -7.21599301e-03, -3.30121792e-03,
       -1.19772404e-02, 3.14877508e-03, 1.07032899e-02, -4.48085880e-03,
       -5.55888889e-03, -6.73395814e-03, -6.57522725e-03,
       -1.84977811e-03, 3.91469616e-03, -2.06782576e-03, 8.10283516e-03,
       9.69077740e-03, -1.28175481e-03, -9.58637707e-03, -6.13206252e-03,
       -1.12581346e-03, -1.80797663e-03, -1.79198314e-03, 8.62464891e-04,
       1.51538746e-02, 1.61611363e-02, 1.34479415e-04, 6.28737500e-04,
       -3.39778746e-03, -3.70292179e-03, -4.50045289e-03,
       -7.58284936e-03, -3.29724234e-03, 1.77192036e-02, 1.11678299e-02,
       1.00100031e-02, -6.59285299e-03, -8.58600158e-03, -7.15503935e-03,
       -4.82370472e-03, -5.78947831e-03, -4.94250702e-03, 3.13893706e-03,
       1.67634571e-03, -4.08846559e-03, -1.01367373e-03, -9.65214707e-03,
       -8.47096369e-03, -6.49166945e-03, -2.72873463e-03,
       -5.06025460e-03, 6.05304912e-03, 6.99900324e-03, 4.89657419e-03,
       -4.64975741e-03, -4.55330685e-03, -6.62787072e-03,
       -1.02276420e-02, -1.42164240e-02, -6.12175232e-03, 6.62233401e-03,
       1.14842467e-02, 4.59236884e-03, -2.26554018e-03, -6.90901792e-03,
       -5.28932782e-03, -3.65335098e-03, 3.37831094e-04, 3.82844429e-03,
       9.48843174e-03, 1.12187741e-02, 3.32662230e-03, 1.12899404e-03,
       -8.30722135e-03, -8.55496433e-03, -9.56043974e-03,
       -4.46298439e-03, -2.66634603e-03, 1.77481084e-03, 8.68814159e-03,
       5.84868249e-03, 1.71476160e-03, -2.72827270e-03, -4.22152225e-03,
       3.59992590e-03, 6.45223586e-03, 4.68888506e-03, 2.17359094e-03,
       6.38261484e-03, 4.20140103e-03, -1.90373848e-03, -1.41177606e-03,
       -2.40622368e-03, -2.09352374e-03, -5.44824405e-04, 1.21045415e-03,
       6.07281830e-03, 7.66027672e-03, -1.99897261e-03, 2.12361381e-04,
       5.20389481e-03, 1.28186110e-03, -5.39589720e-03, -9.56539810e-03,
       -3.45304492e-03, 3.04554286e-03, 2.18094769e-03, -4.62763431e-03,
       3.96161526e-03, 2.79880268e-03, 5.58181258e-04, 3.50169744e-03,
       6.63728337e-04, -1.10454066e-03, 1.21882313e-03, 3.49698286e-03,
       2.05320888e-03, 4.87864763e-03, 3.22918850e-03, 1.16445625e-03,
       -3.35470354e-03, -1.01694521e-02, -5.15884487e-03,
       -2.28837554e-04, 1.01358302e-04, 1.18995213e-03, -8.55492242e-03,
       -7.76882982e-03, -3.11331218e-03, 2.86817714e-03, 7.05610216e-03,
       3.35623068e-03, -2.46169069e-03, -5.68212336e-03, -8.36060662e-03,
       -6.21010642e-03, -5.81745524e-03, -2.89399805e-03, 3.55061516e-03,
       8.68930016e-03, 5.17891301e-03, 1.33373280e-04, -4.42542322e-03,
       -8.90484359e-03, -1.00137461e-02, -7.02150073e-03,
       -2.54368456e-03, 3.30669410e-03, 7.20306812e-03, 2.60676164e-03,
       -3.70249711e-03, -8.71375576e-03, -1.05559984e-02,
       -1.11095086e-02, -5.46359038e-03, -1.00778823e-03, 5.63475303e-03,
       8.46265256e-03, 3.96737875e-03, -3.11475340e-03, -6.65294519e-03,
       -7.50527950e-03, -3.63320438e-03, -4.28193249e-03,
       -2.57529574e-03, -3.02083616e-04, 9.85821243e-04, -5.23574650e-04,
       -4.71456582e-03, -3.55212623e-03, -4.60421946e-03,
       -2.08680192e-03, -3.23885167e-03, -3.25143407e-03, 1.14807731e-03,
       9.60836094e-03, -3.14251462e-04, -5.31368703e-03, -5.54013345e-03,
       -3.99855152e-03, -6.01090351e-03, -3.77105875e-03,
       -5.47492877e-03, -5.77415049e-04, 1.92963940e-04, -2.18262750e-04,
       -2.49647791e-03, -4.43511875e-03, -4.46427660e-03,
       -5.28865634e-03, -7.32233422e-03, -5.90311084e-03,
       -1.50723779e-03, 6.67597540e-03, 1.08396972e-03, -3.91250523e-03,
       -3.65301501e-03, -2.47836928e-03, -6.91412529e-03, 1.80657115e-03,
       1.79097464e-03, 5.25735877e-03, 2.69328766e-02, 1.09745422e-03,
       -8.92573595e-03, -5.89880487e-03, -7.27373129e-03,
       -1.19745191e-02, -6.87658973e-03, -8.70848913e-03,
       -3.73425319e-05, 1.54433465e-02, -7.72830471e-03, -1.69503968e-02,
       -1.64046511e-02, -1.42831588e-02, -8.36596452e-03,
       -6.58731302e-03, -9.97084752e-03, 5.39835135e-04, 2.53858622e-02,
       6.03676960e-03, 1.19760318e-03, 2.36093090e-03, -7.64499092e-03,
       -1.56145925e-02, -1.77913606e-02, -1.77051499e-02,
       -9.46038403e-03, 1.27209602e-02, -2.31150829e-04, -8.08032043e-03,
       -5.52269956e-03, -1.31045198e-02, 5.36574097e-03, 1.65978784e-03,
       -2.57495209e-03, 3.79670574e-03, 2.39433087e-02, -2.63037207e-03,
       -1.36323385e-02, -8.91762506e-03, 5.59609151e-03, -4.25222184e-04,
       -1.01134218e-02, -9.96057130e-03, -4.59797448e-03, 1.67329870e-02,
       -4.40064678e-03, -1.01387687e-02, -9.21224244e-03, 2.76102102e-03,
       6.48092153e-03, -9.01267305e-03, -1.34049505e-02, -2.92904489e-03,
       2.38618907e-02, 4.06735018e-03, 5.76173363e-04, 3.42896068e-03,
       7.17087043e-03, 3.50825838e-03, -8.56726151e-03, -9.52412374e-03,
       -4.68603522e-03, 1.80011950e-02, -5.00566140e-03, -9.27703083e-03,
       -1.01473285e-02, 6.30479830e-04, -5.23005147e-03, -7.27596087e-03,
       -6.21884968e-03, -5.52425720e-03, 1.48336159e-03, -6.80805137e-03,
       -7.47523969e-03, -8.33770819e-03, -4.04389948e-03,
       -2.94714863e-03, -1.00372673e-03, 5.49245672e-03, 1.43459335e-03,
       1.03522707e-02, 4.47872188e-03, 1.21118790e-02, 3.93658644e-03,
       -1.83564296e-03, -2.99809244e-03, -8.09222367e-03,
       -7.73835555e-03, -7.55282119e-03, 9.54367919e-04, -5.92995295e-03,
       -5.92613406e-03, -7.93769024e-03, -5.11289574e-03,
       -8.28992925e-04, 3.92542640e-03, 1.28681371e-02, 5.82595030e-03,
       1.20245190e-02, 2.06192862e-03, 6.00341009e-03, -3.73620511e-04,
       -2.90007959e-03, 2.92553188e-04, 3.10146628e-04, -2.19342008e-04,
       -6.62627723e-03, -1.07035106e-02, -5.65515785e-03, 9.95265786e-04,
       2.85949232e-03, 2.66500108e-04, 1.44355344e-02, 7.67824193e-03,
       3.41113028e-03, -3.98233393e-03, -1.05988362e-03, -4.50184289e-03,
       9.77321062e-04, 5.99534810e-03, 1.32965874e-02, 4.17015515e-04,
       2.98831682e-03, 7.27829756e-04, -5.42083522e-03, -1.13627128e-02,
       -7.37709086e-03, -8.00352311e-04, -2.49149307e-04, 8.88994022e-04,
       1.28576485e-02, 6.32368401e-03, 1.35610625e-03, -4.39207954e-03,
       -5.24198229e-04, -4.70843259e-03, 4.32912726e-03, 8.43933877e-03,
       1.34699829e-02, 7.60903023e-03, -5.59283560e-03, -3.73142259e-03,
       -4.42114519e-03, -5.22981258e-03, -5.97785646e-03,
       -3.38578946e-03, -4.12710011e-03, 9.68878251e-03, 1.05811218e-02,
       -8.47406313e-03, -6.52302010e-03, -6.30904501e-03,
       -5.10864239e-03, -6.05167169e-03, -5.83481928e-03,
       -6.70381542e-03, 7.41182594e-03, 8.66352022e-03, -4.70363628e-03,
       -3.85738118e-03, -7.15311849e-03, -4.96577984e-03,
       -5.26594417e-03, -4.45219455e-03, -5.58221480e-03, 6.30297791e-03,
       6.42445637e-03, -7.70587148e-03, -6.85707619e-03, -6.92484993e-03,
       -5.16660931e-03, -7.30961701e-03, -7.52539793e-03,
       -8.76778457e-03, 9.27057490e-03, 1.55825755e-02, -7.17653474e-03,
       -8.83447286e-03, -9.17451270e-03, -7.01659732e-03,
       -7.13505177e-03, -1.03030764e-02, -6.60978956e-03, 1.34590138e-02,
       1.06452852e-02, -5.23232855e-03, -7.52178859e-03, -1.08366525e-02,
       -8.60152394e-03, -9.13313683e-03, -1.05807548e-02,
       -5.99699328e-03, 1.12617230e-02, 1.23781180e-02, -7.15092197e-03,
       -1.14032486e-02, -7.86771439e-03, -7.37966783e-03,
       -1.02831498e-02, -9.52354539e-03, -8.27662740e-03, 1.38591118e-02,
       9.87438392e-03, -5.99919865e-03, -1.11031057e-02, -9.80786700e-03,
       -8.81862175e-03, -1.17820138e-02, -8.18207394e-03,
       -5.90665173e-03, 9.68722254e-03, 9.32548102e-03, -4.74680855e-04,
       -2.69341143e-03, -7.13736238e-03, -4.12743073e-03,
       -5.46833593e-03, -3.27551225e-03, 1.84376468e-03, 6.78722607e-03,
       2.21982226e-03, -4.51812847e-03, -3.61698447e-03, -6.89248694e-03,
       -3.37752746e-03, -4.97426605e-03, -8.34328879e-04,
       -1.29784876e-03, 4.42835782e-03, 6.78450987e-03, 1.38766679e-03,
       -4.16335789e-03, -5.90629363e-03, -4.34522144e-03,
       -7.54646352e-03, -2.42891186e-03, -8.95964797e-04, 7.66993733e-03,
       4.04336862e-03, -1.92179380e-03, -1.12587609e-03, -5.41383307e-03,
       -2.25738692e-03, -7.21533969e-03, -3.70190921e-03,
       -4.96017002e-03, 1.38046115e-03, 4.49480535e-03, -1.00742463e-05,
       1.29323837e-03, -1.84127421e-03, 3.78686027e-03, -3.69616388e-03,
       4.07567853e-03, 3.06277373e-03, 6.04892895e-03, -4.18810581e-04,
       -4.02946171e-05, -4.34387301e-04, -4.40926943e-03,
       -7.29812216e-03, -3.84015916e-03, 7.69553240e-04, 2.52690190e-03,
       -2.94089806e-03, 5.74476598e-03, 3.71570187e-03, 3.85289267e-03,
       -4.03799396e-03, 5.19906357e-03, -1.55917136e-03, 1.70942594e-03,
       2.80663284e-04, 4.70242742e-03, -2.89843068e-03, 2.63600168e-03,
       9.97125171e-04, -4.22120746e-03, -6.83242921e-03, -4.48248256e-03,
       4.54026958e-05, -7.66524812e-04, -1.12343603e-03, -3.22480570e-04,
       4.91123926e-03, 1.74231431e-03, 4.40404692e-04, -1.68017845e-03,
       -2.59279506e-04, 6.21948717e-03, 8.54729861e-03, -1.98977091e-03,
       -4.26199567e-03, 4.30794293e-03, -1.12849276e-03, -8.09140131e-03,
       -1.25315494e-03, -7.50831375e-03, -1.73105247e-04, 7.26995012e-03,
       -1.94976770e-03, -1.64387398e-03, 9.08079185e-03, 7.25334883e-03,
       6.74781550e-05, -4.57689690e-04, 1.61201460e-03, 1.68277789e-03,
       5.02636423e-03, -4.40170203e-04, -1.57941261e-03, 7.36461952e-03,
       -4.18826152e-04, -8.19016621e-03, 3.54157441e-04, -7.46463193e-03,
       -1.78248808e-03, 3.64688458e-03, -4.60938411e-03, -1.10457581e-03,
       3.62860528e-03, -1.19463447e-03, -7.45135918e-03, -7.77050038e-04,
       -7.51882885e-03, -1.08979316e-03, 5.10537764e-03, 4.57794376e-04,
       8.24505650e-03, 1.99801894e-03, -3.29243345e-03, -4.88896971e-04,
       4.07152064e-03, -8.86158552e-04, -8.92551383e-04, 1.38635235e-03,
       6.55490067e-03, 3.49680311e-04, 4.91991453e-03, -1.16461108e-03,
       -8.79776478e-03, 3.48707108e-04, -8.10577068e-03, -1.46071636e-03,
       3.17084952e-03, -1.24625955e-03, 5.14358096e-03, 1.23607239e-03,
       -8.52371682e-04, -1.47686363e-03, 5.33448439e-03, -1.36605953e-03,
       -3.43249738e-03, 1.14291161e-03, 7.37262098e-03, 7.74774840e-03,
       -3.34349554e-03, -5.65832434e-03, -6.32190891e-03,
       -1.26939116e-03, -7.95811601e-03, -1.29334303e-03,
       -3.20034567e-03, 4.20744531e-03, 7.79144140e-03, -5.97271556e-03,
       -4.83576395e-03, -9.67137795e-03, -4.90004677e-05,
       -6.69663167e-03, 7.14175461e-04, 2.04244489e-03, 8.07684567e-03,
       3.09644872e-03, -2.93326657e-03, -1.41976599e-03, -9.14156623e-03,
       -1.07244449e-03, -7.61573622e-03, -6.34896662e-03,
       -4.48412681e-03, 6.36335649e-03, 9.51873697e-03, 3.52566619e-03,
       1.65607897e-03, -6.91991905e-03, 2.51894642e-04, -1.05396854e-02,
       -5.95499156e-03, -8.28295294e-03, 7.26606091e-03, 2.24565645e-03,
       -6.03741733e-03, -7.83750322e-03, -1.01590175e-02,
       -4.14780015e-03, -5.41017763e-03, -4.73186700e-03,
       -1.13847852e-03, 1.50227861e-03, 4.26343968e-03, -3.46792978e-03,
       -5.38218021e-03, 4.12004767e-03, 9.82606038e-03, 2.07467820e-03,
       -8.15181620e-03, -4.40511061e-03, 3.87883862e-03, 8.55016813e-04,
       -4.14663518e-04, -4.87864995e-03, -5.31606050e-03,
       -3.19376169e-03, -1.15806758e-02, -8.99437536e-03,
       -6.86702551e-03, 1.83363585e-03, 3.77663015e-03, -4.29941574e-03,
       -8.07671528e-03, 1.54307426e-03, 8.53085052e-03, 3.52477538e-03,
       -6.08354900e-03, -3.50489421e-03, 3.39831598e-03, 7.13169854e-03,
       1.10424648e-03, -8.12458922e-04, 2.24584946e-03, -2.24028225e-03,
       -1.12340203e-03, -5.18086506e-03, -4.47955495e-03, 4.55357786e-03,
       5.96998865e-03, -2.53004394e-03, -4.06415202e-03, -5.60571020e-03,
       -1.17051564e-02, -6.56901579e-03, -6.77782530e-03,
       -5.31133171e-03, 5.19894948e-03, 4.25118813e-03, -4.86580469e-03,
       -5.64290583e-03, -2.20033713e-03, -3.57773877e-03, 1.92986231e-03,
       -5.01856674e-04, 1.04760227e-03, 5.59606543e-03, 3.78477131e-03,
       -5.41080767e-03, -6.24045217e-03, -7.26279849e-03,
       -1.18006710e-02, -6.13370957e-03, -3.73788970e-03,
       -2.19574268e-03, 5.57630928e-03, -6.03383873e-03, -7.10603548e-03,
       -4.99644643e-03, -8.10626836e-04, 9.63061396e-03, 3.92028177e-03,
       1.41904422e-03, -3.53653263e-03, -4.55152290e-03, -5.10448357e-03,
       -3.54430638e-03, -2.28518131e-03, 3.09237442e-03, 1.08221797e-02,
       3.34352488e-03, 2.88742245e-04, 6.34867058e-04, -2.86036753e-03,
       -2.36023590e-03, -6.82314811e-03, -8.00833572e-03,
       -2.26418721e-03, 4.87364596e-03, 4.31279931e-03, 7.64878525e-04,
       -2.46886676e-03, -3.54320998e-03, -2.05044262e-03,
       -4.25151689e-03, -1.79988635e-03, 2.13359669e-03, 5.69576677e-03,
       -1.84843934e-03, 1.23413245e-03, 2.24757241e-03, -4.52608801e-03,
       -3.94050265e-03, -2.20939401e-03, -2.34615803e-03, 2.84733484e-04,
       2.80699460e-03, -3.68158420e-04, -1.59196148e-03, -1.42702286e-03,
       -2.31089583e-03, 2.69151824e-05, -3.81332007e-03, -3.75350914e-03,
       -1.52389985e-03, 7.06214504e-03, 6.07007323e-03, 4.23268275e-03,
       5.95474383e-03, -2.26440578e-04, -7.70038646e-03, -2.92217592e-03,
       -1.62541226e-03, 2.02972209e-03, -8.90426280e-04, -6.19919272e-03,
       -2.99717719e-03, -4.14276234e-04, -7.14520179e-03,
       -6.77102106e-03, -3.98556702e-03, -4.81794542e-03,
       -9.12900607e-04, 5.75661473e-03, -1.02652004e-03, 5.16153080e-03,
       6.53449632e-03, -3.04081407e-03, -9.73819103e-03, -9.22757667e-03,
       -1.39558781e-02, -8.04824755e-03, 9.73270182e-03, 1.01578713e-03,
       6.97334250e-03, 1.17682312e-02, -7.96935521e-03, -1.17842406e-02,
       -1.32337408e-02, -1.53329764e-02, -1.49276592e-02, 3.93076055e-03,
       -5.54032158e-03, 3.66345653e-03, 1.16220359e-02, -6.60232967e-03,
       -8.41160305e-03, -9.60748736e-03, -1.31152719e-02,
       -7.26711005e-03, 3.26534850e-03, -2.72993534e-03, 1.52013162e-02,
       1.52550144e-02, 1.72915359e-04, -9.40357521e-03, -1.02261100e-02,
       -1.42179234e-02, -1.05767250e-02, -6.54576952e-03,
       -1.04926527e-02, 1.74000710e-02, 2.36182008e-02, 3.31863482e-03,
       -8.11585970e-03, -1.37657970e-02, -1.57563239e-02,
       -1.33496467e-02, -1.94231444e-03, -7.63213448e-03, 1.19752216e-03,
       6.98220124e-03, -6.57575345e-03, -9.54237860e-03, -1.09971464e-02,
       -1.13774221e-02, -6.85965782e-03, 1.13423746e-04, -8.51304922e-03,
       -8.68737139e-03, -5.88931190e-03, -1.37553774e-02,
       -1.26288168e-03, -7.99973216e-03, -1.19933877e-02,
       -1.04925698e-02, -8.73191282e-03, -1.10586146e-02, 2.35361457e-02,
       3.23753208e-02, 1.67605262e-02, -3.23899463e-03, -5.91643807e-03,
       -5.78382984e-03, -7.62327388e-03, -7.77353207e-03,
       -1.05439872e-02, 1.48199610e-02, 2.70736627e-02, 1.17726680e-02,
       -8.91321525e-03, -8.46971851e-03, -9.09506809e-03,
       -9.67882387e-03, -7.63137033e-03, -7.79320532e-03,
       -9.43586882e-03, -5.10252593e-03, -1.36426324e-02,
       -9.94234066e-03, -3.65468790e-03, -1.28501677e-03,
       -2.20013317e-03, 4.84511431e-04, -2.33390043e-03, -1.86135573e-03,
       -2.89011025e-03, -1.04248095e-02, -3.29558924e-03,
       -3.85536067e-03, -4.56100982e-03, -8.82493984e-03,
       -9.64899827e-03, -7.08205253e-03, 1.27903931e-02, 2.22004019e-02,
       8.28125700e-03, -2.00903579e-03, 1.47750857e-03, 2.16383580e-03,
       2.73669371e-04, 2.05348316e-03, -6.72954135e-04, 1.16063971e-02,
       1.51636852e-02, 6.05307752e-03, -3.68652027e-03, -1.30130688e-03,
       -2.50346633e-03, -4.76157479e-03, -9.57975909e-03,
       -4.98720724e-03, -1.64199714e-03, 7.21384829e-04, -2.30400870e-03,
       6.26870943e-03, 2.47807289e-03, -2.05408526e-03, -5.26756281e-03,
       -1.73786411e-03, -7.05051329e-03, -1.46690477e-03, 3.42849060e-03,
       3.22839129e-03, -1.72068086e-03, 4.07161278e-04, 1.03552302e-03,
       -2.32697744e-03, -5.50847501e-03, -3.36212083e-03, 7.32830446e-03,
       1.12793427e-02, 6.04537828e-03, 1.36510341e-03, 4.42968355e-03,
       2.64239521e-03, -3.67026281e-04, -6.57394179e-04, -6.91087870e-03,
       1.61308597e-03, 7.90826418e-03, 4.28417791e-03, 8.71567335e-03,
       -4.66237357e-03, -4.14395845e-03, -5.79258427e-03,
       -5.27853379e-03, -5.61106903e-03, -8.13971553e-03,
       -7.78131885e-03, 4.42493008e-03, 9.32654087e-03, -2.94131157e-03,
       -6.65593054e-03, -5.89157362e-03, -6.25855941e-03,
       -4.58656112e-03, -7.46309292e-03, -8.92604515e-03, 8.01306218e-03,
       2.93205935e-03, 1.03168318e-03, -1.19825511e-03, -1.88341888e-03,
       -3.37580591e-03, -5.04140928e-03, -6.89472584e-03,
       -9.24463011e-03, 1.82355614e-03, 8.39940924e-03, 4.52482887e-03,
       1.40091893e-03, -4.71115112e-03, -1.69130531e-03, -1.38356932e-03,
       -2.76587927e-03, -7.12934695e-03, 6.47911662e-03, 8.44985060e-03,
       -6.04466489e-03, -8.15165881e-03, -6.74948609e-03,
       -8.96739494e-03, -6.82411576e-03, -7.55634904e-03,
       -9.94561706e-03, 6.82420982e-03, 4.21780162e-03, -2.83708028e-03,
       -9.12384782e-03, -6.68825209e-03, -7.79492781e-03,
       -9.24709905e-03, -6.57051150e-03, -7.41476007e-03, 3.18497396e-03,
       9.88521241e-03, 7.74519285e-03, -8.85320915e-05, -7.96809234e-03,
       -5.13912039e-03, -4.57533216e-03, -5.74760139e-03,
       -7.01440312e-03, 5.11685153e-03, 5.88727416e-03, 8.81767180e-03,
       4.77621012e-04, -6.10468630e-03, -9.81942285e-04, -5.51769277e-03,
       -4.35980642e-03, -4.50514257e-03, 4.99236118e-03, 6.33997889e-03,
       1.33809040e-03, -4.30701580e-03, -3.32694710e-03, -3.97410151e-03,
       -6.40678965e-03, -1.93502463e-03, -1.73430177e-04, 6.65563485e-03,
       4.32523491e-04, -9.99442418e-04, -3.00368457e-03, -6.75503723e-03,
       -4.96822409e-03, -6.14202768e-03, -4.60496778e-03,
       -6.68736501e-03, 7.20052572e-04, 6.76320214e-03, 4.05515125e-03,
       3.24764929e-04, -3.19642876e-03, 1.98232220e-03, -2.22961628e-03,
       1.55440287e-03, -1.71976991e-03, 4.46862727e-03, 8.05267307e-04,
       4.21710487e-04, -3.64472135e-03, -9.12015792e-03, -4.44354769e-03,
       -4.84466646e-03, -7.67203979e-04, -6.53463695e-03,
       -1.24691555e-03, 5.13643492e-04, 2.31754617e-03, 7.30933563e-04,
       -8.58958531e-03, -1.21169817e-03, -2.96781491e-03,
       -2.25764117e-03, -4.27779555e-03, 1.30418193e-04, -6.64621824e-03,
       1.49776775e-03, 1.15922194e-04, -9.10186302e-03, -8.21056403e-03,
       -6.12171832e-03, -3.44263366e-03, -2.26859562e-03,
       -8.20630789e-03, 4.91434569e-03, 4.97073075e-03, -1.94102060e-04,
       -9.67497285e-03, -5.88532013e-04, -4.18650545e-03, 2.40273355e-03,
       2.32657476e-04, 9.79760778e-04, 7.60076055e-03, 9.33898333e-03,
       6.79034134e-03, -1.00619728e-02, -6.04686327e-03, -8.56330711e-03,
       -2.20493530e-03, 1.63757952e-03, -1.33452401e-03, -7.33732292e-03,
       9.15436633e-03, 6.13834383e-03, -3.37765738e-03, -8.75881757e-04,
       -1.79717096e-03, 3.79430101e-04, -1.33771886e-04, -9.10554361e-03,
       -1.19005637e-02, 8.02896451e-03, 2.50517623e-04, -1.23811308e-02,
       -8.89216457e-03, -6.46850374e-03, -5.10785496e-03,
       -5.37858671e-03, -1.53718675e-02, 7.12275039e-03, 1.95184015e-02,
       1.27219502e-02, -6.31317589e-03, 1.72622153e-03, -2.73908582e-03,
       1.90215558e-03, 2.19986145e-03, -7.04932259e-04, 6.27219351e-03,
       2.03778800e-02, 1.46417273e-02, -1.76656414e-02, -1.02121476e-02,
       -8.02788883e-03, -4.73534735e-03, -6.34505926e-03,
       -5.81403822e-03, -5.41958725e-03, 1.10728312e-02, 3.66062857e-03,
       -1.16727930e-02, -5.34596527e-03, -7.01961201e-03,
       -4.05375240e-03, -5.85815124e-03, -1.10719968e-02,
       -2.99495063e-03, 9.19940695e-03, 8.92458111e-03, -1.36886991e-03,
       2.52051535e-03, -2.55104736e-03, -6.67916145e-03, -7.54108187e-03,
       -6.98945345e-03, 5.89636108e-03, 2.18639262e-02, 1.67015959e-02,
       -1.47161689e-02, -8.21201503e-03, -1.01263132e-02,
       -5.60650462e-03, -8.19324702e-03, -7.29623390e-03, 1.09306006e-02,
       2.77239121e-02, 2.32937597e-02, 3.79004690e-04, 5.75849728e-04,
       -4.86623216e-03, -3.11212940e-03, -7.14762136e-03,
       -3.99019476e-03, -4.18660836e-03, 3.27590806e-03, 4.26938571e-03,
       -3.66931269e-03, -5.48431138e-03, -3.85599025e-03,
       -6.78040739e-03, -8.31674505e-03, -7.91257806e-03, 3.52524384e-03,
       7.35615287e-03, 6.44232007e-03, -4.93712863e-03, -5.36589185e-03,
       -6.04382064e-03, -8.44211783e-03, -8.46422650e-03,
       -2.58317543e-03, 7.21165212e-04, 1.57717299e-02, 1.52507368e-02,
       8.34462582e-04, -7.40398711e-04, -2.32694135e-03, -1.13635731e-03,
       -6.21137023e-03, -9.77633987e-03, 9.32729896e-03, 1.02174357e-02,
       1.72141157e-02, -4.16985247e-03, -7.09777651e-03, -5.57109155e-03,
       -3.82497022e-03, -3.46292090e-03, 6.52332208e-04, 6.41108304e-03,
       9.18971747e-03, 2.77968845e-03, -2.82565900e-03, -5.72230155e-03,
       -8.06690194e-03, -7.31019117e-03, -6.81373617e-03, 1.62737467e-03,
       4.03851829e-03, 7.58437579e-03, 2.91224336e-03, 4.70153289e-03,
       7.60014821e-03, 2.63209129e-03, -3.26199550e-03, -2.42830138e-03,
       2.02226453e-03, 5.48631046e-03, 1.00653619e-02, 7.33973552e-03,
       -6.95952633e-03, -1.38567705e-02, -1.18469400e-02,
       -6.06750697e-03, -4.43814090e-03, -4.20581410e-03, 3.22906929e-03,
       1.09366495e-02, 9.99664050e-03, 3.38131748e-03, -8.41694884e-04,
       -4.00993088e-03, -4.93878545e-03, -7.58372806e-03,
       -2.27494258e-03, 1.76910264e-03, 4.81554447e-03, 1.44493894e-03,
       -3.99692217e-05, 2.13585072e-03, 2.52059172e-03, 3.04515997e-04,
       2.55524088e-03, 3.79509339e-03, 6.37476391e-04, 1.30552740e-03,
       7.10724678e-04, -4.16510878e-03, -9.17929411e-03, -2.75347242e-03,
       1.10962521e-03, 4.20952449e-03, 4.94732568e-03, -1.65188848e-03,
       7.39975367e-03, 6.58201147e-03, 7.23978039e-04, -1.50339003e-03,
       -2.25101272e-03, -1.88591890e-03, -1.17919839e-03,
       -2.43178988e-03, -3.98016907e-03, 1.73408352e-03, 3.53164133e-03,
       -3.16066784e-03, -9.70474724e-03, -5.76058822e-03, 5.89991279e-04,
       5.09161456e-03, 1.57525693e-03, 1.07459852e-03, 4.67848615e-04,
       -1.23475224e-03, 1.57808268e-03, 4.66244668e-03, 1.53560180e-03,
       -1.56939577e-03, -2.08560284e-03, -6.81951991e-04,
       -1.34481059e-03, -3.26680834e-03, -2.29291478e-03, 1.46152300e-03,
       5.42135350e-03, -5.56803367e-04, 7.63345102e-04, 4.68552113e-03,
       -2.66890111e-03, -9.95415030e-05, 1.29128376e-03, -2.78995163e-03,
       -2.59991945e-03, 2.06500132e-04, -1.21485791e-03, -6.48491830e-03,
       -6.77625695e-03, -7.20243203e-03, -6.07089791e-03,
       -3.17252614e-03, -4.98288451e-03, -5.56186959e-03, 5.85470023e-03,
       -4.46579745e-03, -6.60216110e-03, -3.92077630e-03,
       -8.10942706e-03, -7.07988255e-03, -7.14851404e-03,
       -5.34816133e-03, 1.83552504e-04, -2.76436040e-04, -2.95410072e-03,
       1.41863024e-03, 6.08778931e-03, -3.79190966e-03, -5.49549190e-03,
       -3.96358920e-03, -2.46312283e-03, 3.48550704e-04, 1.55614840e-03,
       -1.57083035e-03, 6.54382026e-03, 1.03505263e-02, -1.30724465e-03,
       -6.42917911e-03, -5.11003006e-03, -4.00310149e-03,
       -4.55011986e-03, -1.36636174e-03, -1.75871456e-03,
       -6.60618814e-03, -1.11458392e-03, -6.05206750e-03,
       -5.90102281e-03, -1.20472885e-03, 1.03421719e-03, -2.28153728e-03,
       -2.34467629e-03, -4.16517863e-03, 6.91418187e-04, 4.82279202e-03,
       -3.16837383e-03, -7.83161633e-03, -4.19315137e-03,
       -7.12992717e-03, -2.84760003e-03, -2.36080051e-03,
       -4.92268149e-03, 4.63886140e-03, 8.69723503e-03, -4.98298509e-03,
       -5.53371245e-03, -1.17298798e-03, -5.29718772e-03,
       -1.61202357e-03, -2.90770363e-03, -5.33365132e-03, 1.23130903e-02,
       1.57398786e-02, 1.55611930e-03, -8.54472443e-03, 1.58820266e-03,
       1.63052813e-03, -2.01453385e-03, -5.01028448e-03, -8.95751361e-03,
       2.86202354e-04, 3.15556768e-03, -8.11634399e-03, -6.00954890e-03,
       6.21512812e-03, 4.99009155e-03, 2.86799343e-03, 1.71087950e-03,
       -7.72278570e-03, 5.65388518e-06, 3.39178159e-03, -7.75363529e-03,
       -1.00127105e-02, -3.75049585e-03, -7.66814919e-03,
       -2.87725334e-03, -3.97794694e-03, -4.60840994e-03, 1.18587753e-02,
       1.97795983e-02, 9.71483882e-04, -3.67355556e-03, -3.85283772e-03,
       -5.90274716e-03, -4.66720108e-03, -7.12729711e-03,
       -5.71691478e-03, 1.03700534e-02, 2.42396798e-02, 7.10673584e-03,
       -1.06947348e-02, -1.35242974e-03, 4.04635393e-05, 2.76758522e-03,
       -1.98862120e-03, -3.86001286e-03, -6.69295841e-04, 2.62429449e-03,
       -9.53720976e-03, -6.50654314e-03, -2.45664502e-03,
       -2.52626580e-03, -8.68198578e-04, -2.64349487e-03,
       -4.60960623e-03, -5.71502314e-04, 7.69434171e-03, -1.30536489e-03,
       -7.48969056e-03, -6.21514115e-03, -5.47825918e-03,
       -7.53217377e-03, -8.56349617e-03, -7.44950352e-03, 1.10730669e-02,
       2.52169073e-02, 4.47653420e-03, -8.90450086e-03, -7.02615827e-03,
       -4.11491934e-03, -6.01933012e-03, -4.84449696e-03,
       -4.67746006e-03, 1.25727104e-02, 1.80890728e-02, 4.16961499e-03,
       -4.42510471e-03, -5.27214119e-03, -5.85987233e-03,
       -5.98951988e-03, -4.32237377e-03, -5.93835348e-03, 4.52210335e-03,
       1.27485823e-02, 1.90626236e-03, -8.78026709e-04, -9.15379729e-03,
       -1.03361132e-02, -1.18166897e-02, -9.01582465e-03,
       -5.07452013e-03, 9.68864094e-03, 1.13629885e-02, 2.43816758e-03,
       -8.95517319e-03, -3.48387007e-03, -1.17239053e-03,
       -2.36306340e-03, -5.23909181e-03, -3.36739060e-04, 9.26127750e-03,
       1.37125086e-02, 2.26959516e-03, 2.92121642e-03, -5.60311426e-04,
       -1.84026547e-03, -2.70351907e-03, -3.11464816e-03,
       -2.79962132e-03, 2.07052240e-03, 1.32222585e-02, 6.44008955e-03,
       -1.23085710e-03, -9.43328347e-03, -8.32097232e-03,
       -8.14039726e-03, -8.57916102e-03, -2.68586143e-03, 4.32935078e-03,
       1.09664351e-02, 3.85424378e-03, 1.71269989e-03, -9.82926041e-03,
       -1.05194012e-02, -9.70689952e-03, -1.30995344e-02,
       -6.49270928e-03, -1.60077983e-03, 1.09640639e-02, 4.55732271e-03,
       5.20480704e-03, 4.30515298e-04, -1.28282805e-03, -3.25585622e-03,
       -5.85546251e-03, -3.34164803e-03, -3.59068369e-03,
       -9.53620329e-05, 7.78960017e-03, 4.54283226e-03, 2.37033004e-03,
       -6.29805363e-05, -4.74091619e-03, -5.66308340e-03,
       -3.41445464e-03, -1.04658492e-03, -2.27251410e-04, 5.65143069e-03,
       3.93637456e-03, -5.02469856e-03, -7.79822422e-03, -4.23384551e-03,
       -8.99525546e-03, -4.54306137e-03, -5.36266807e-03,
       -1.49388309e-03, 6.19338127e-03, 5.16683841e-03, -5.18976711e-03,
       -7.64143234e-03, -7.16473162e-03, -7.37480726e-03,
       -1.40537240e-03, -5.25179319e-03, -5.60600543e-03, 4.14563483e-03,
       6.24026172e-03, 5.25839021e-03, -1.81433148e-04, -6.87302928e-03,
       -4.71090106e-03, -4.71732998e-03, -5.64286066e-03,
       -4.61030891e-03, 7.54956296e-03, 5.58482390e-03, 1.20392814e-02,
       5.07987151e-03, -5.37138386e-03, -2.63355253e-03, -6.88053155e-03,
       -6.40021404e-03, -7.45299505e-03, 3.73392133e-03, 6.54163491e-03,
       -6.09473325e-03, -8.34791735e-03, -8.01410526e-03,
       -4.18303255e-03, -3.44806607e-03, -7.24217901e-03,
       -6.96064532e-03, 6.78378297e-03, 4.94183460e-03, 5.06649632e-03,
       -2.87560234e-03, -7.63708865e-03, -7.75036635e-03,
       -7.41783576e-03, -8.48099310e-03, -1.27719818e-02, 7.34810345e-03,
       5.03339898e-03, 1.06172524e-02, 7.06489058e-03, -6.96574221e-04,
       3.29965679e-03, -1.79371587e-03, -3.15996795e-03, -7.66517548e-03,
       3.23589495e-03, 3.89094721e-03, 4.64200834e-03, 2.06303457e-03,
       -6.64947089e-03, -1.83662528e-03, -3.95090366e-03,
       -1.64227129e-03, -7.95046333e-03, 3.18359787e-04, 5.52574545e-03,
       5.00531495e-03, -2.27267086e-03, -6.36279304e-03, -3.94096924e-03,
       -5.45366295e-03, -5.45904599e-03, -1.09864622e-02, 4.36985400e-03,
       6.30705850e-03, 4.63243155e-03, -1.28420512e-03, -6.88054645e-03,
       -1.11818523e-03, -5.12836780e-03, -4.96437866e-03,
       -8.94459989e-03, 1.68847537e-03, 5.82671398e-03, 4.26218100e-03,
       -2.55098479e-04, -1.09129529e-02, -7.04913586e-03,
       -5.00484556e-03, -2.35056481e-03, -3.93706141e-03, 1.08389696e-03,
       3.47270747e-03, 5.86410286e-03, 1.18468376e-03, -7.16450717e-03,
       -2.82662408e-03, -5.17092226e-03, -3.85404006e-03,
       -3.75575433e-03, -1.94326276e-03, 8.86451453e-03, 7.77775003e-03,
       1.71107799e-03, -1.24090714e-02, -3.95893073e-03, -6.69590570e-03,
       -3.95063218e-03, -6.89374935e-03, -8.87832663e-04, 8.45736079e-03,
       9.95397288e-03, 2.90186121e-03, -8.52983445e-03, -3.30105013e-06,
       -3.25511023e-03, -5.36750862e-03, -6.73911534e-03, 1.96408643e-03,
       2.65579997e-03, 1.05434926e-02, 6.24119537e-03, -8.19314551e-03,
       2.76302104e-03, -2.51624337e-03, -1.44390878e-03, -4.75278543e-03,
       -6.55318983e-03, -6.77565869e-04, 1.52237648e-02, 5.86438878e-03,
       -1.61435399e-02, -1.21314107e-02, -1.01484908e-02,
       -3.91398091e-03, -6.68152887e-03, -1.24032814e-02, 8.62579979e-03,
       1.64805222e-02, 7.09106680e-03, -1.43933704e-03, 7.61986803e-03,
       1.42752868e-03, -4.09298670e-03, -5.66535257e-03, -2.90987105e-03,
       5.66984899e-03, 1.36153121e-02, 8.86379182e-03, -8.77838209e-03,
       -3.85883311e-03, -5.01144165e-03, -2.42033624e-03,
       -7.70318741e-03, -8.13595764e-03, 3.91616346e-03, 1.98145658e-02,
       1.18139442e-02, -1.10113407e-02, -1.40551040e-02, -7.59533327e-03,
       -5.05477050e-03, -6.62512565e-03, -1.14729814e-02,
       -2.80367851e-04, 1.84051394e-02, 1.13956705e-02, 2.44494621e-03,
       -5.97733911e-03, -2.78788526e-03, -4.83122934e-03,
       -7.36897392e-03, -1.35267805e-02, 3.22802318e-03, 1.44557077e-02,
       8.17911234e-03, -4.01974237e-03, -5.36161521e-03, -4.33046231e-03,
       -2.31434940e-03, -5.38730342e-03, -8.40416923e-03, 8.74233432e-04,
       1.07442280e-02, 5.74786402e-03, 7.48177478e-03, 3.79973464e-03,
       3.92021844e-03, 5.05193311e-04, -3.67103331e-03, -9.17606708e-03,
       -9.78570315e-04, 1.07474979e-02, 8.35436489e-03, 5.91046177e-03,
       5.63150784e-03, 1.54036179e-03, 5.97889884e-04, -2.07922724e-03,
       -9.62577388e-03, 3.42742121e-03, 4.25846921e-03, 4.01562452e-03,
       -1.81812968e-03, -1.88067323e-03, -1.00319751e-03,
       -2.98298523e-03, -1.07815873e-03, -1.08647451e-03,
       -2.11396744e-03, 4.39771637e-03, 6.33860531e-04, 5.01183933e-03,
       8.21139850e-03, 3.96595988e-03, 1.53950736e-04, -1.87388819e-03,
       -8.35149642e-03, -3.40686738e-03, -2.64632748e-03,
       -3.82835185e-03, -3.15750064e-03, 2.20771646e-03, 1.85620482e-03,
       8.87345173e-04, -3.99017212e-04, -5.12327161e-03, 4.51265741e-03,
       5.87995211e-03, 6.24192692e-03, -6.59683836e-04, -3.60588613e-03,
       -4.02449025e-03, 1.14787219e-03, 3.49120190e-03, 3.04819620e-03,
       1.45212584e-03, 5.60758216e-03, 9.27707087e-03, 3.93781485e-03,
       1.43511954e-03, -4.24875790e-04, -1.13838492e-03, -9.49830050e-04,
       1.71094190e-03, -3.39549780e-03, -3.44841555e-03, -2.27531791e-03,
       -3.05003370e-03, 2.30944110e-03, 2.83211749e-03, 3.25189414e-03,
       3.36700305e-03, -1.52502500e-03, -3.11460649e-03, 8.13849212e-04,
       4.99927439e-03, -1.46443152e-03, -5.16376866e-04, 2.07315641e-03,
       -8.54181184e-04, -1.76291249e-03, -4.01881407e-04, 1.64020061e-03,
       5.19862399e-03, 5.76237077e-03, 2.59691430e-03, -3.50779365e-03,
       -1.27785315e-03, 2.37905551e-04, 1.55210830e-04, 3.75804462e-04,
       6.07364299e-03, 3.93489841e-03, 2.36763549e-03, -5.94374083e-04,
       -6.87398110e-03, -4.68421029e-03, 5.68742119e-03, 6.72720978e-03,
       7.18299067e-03, 4.58917464e-04, 3.82337370e-03, 4.54316009e-03,
       -1.78878952e-03, -9.71227791e-03, -2.51340936e-03,
       -2.55111791e-03, -4.57512401e-03, -1.76435092e-03,
       -3.70634807e-04, 2.07573711e-03, 4.48534871e-03, -1.55382813e-03,
       -6.79650949e-03, -3.38265696e-03, 1.37519336e-03, 1.59523741e-04,
       -2.35299914e-04, 7.19627645e-03, -6.19886734e-04, -6.11101743e-03,
       -6.68262411e-03, -3.18390178e-03, -3.80072044e-03,
       -7.81220011e-03, -5.04164817e-03, 2.42115930e-03, 2.08854908e-03,
       -3.24688363e-03, -7.16020539e-03, -1.15201026e-02,
       -3.58170969e-03, -2.98437942e-03, -4.56094509e-03,
       -3.03680892e-03, 8.75637576e-04, 9.82529763e-03, -3.52584501e-03,
       -1.06945978e-02, -1.03465188e-02, -5.39843459e-03,
       -3.16518149e-03, -1.98765146e-03, 6.52868475e-04, 1.15027353e-02,
       8.45381059e-03, -5.63372159e-03, -1.15482276e-02, -1.27123063e-02,
       -1.01960613e-03, -3.14059458e-03, -3.84960114e-03,
       -2.25993549e-03, 1.00480728e-02, -2.07853314e-04, -3.49621172e-03,
       -4.35458124e-03, -7.48387631e-03, -4.74769296e-03,
       -3.07880901e-03, -4.49524308e-03, -1.61017862e-03, 9.96730174e-04,
       1.13061932e-03, -1.98946815e-04, -2.99887870e-05, -8.28139670e-03,
       -1.62467791e-03, -6.05440978e-03, -4.92694229e-03, 2.98702414e-03,
       4.67443047e-03, 7.50670023e-03, -5.36170881e-03, -1.01754339e-02,
       -1.03680398e-02, -1.09069934e-02, -3.88600957e-03,
       -3.66343954e-03, -1.55995216e-03, 1.12876529e-02, 1.20301796e-02,
       -3.23494477e-03, -5.62661095e-03, -1.12751024e-02,
       -6.52349927e-03, -5.55713428e-03, -8.93932302e-03, 1.05429732e-03,
       1.65822264e-02, -2.78706872e-03, 2.61131045e-03, 2.50414829e-03,
       -3.12518375e-03, -5.36214374e-03, -7.46581843e-03,
       -3.77623271e-03, 3.13362363e-03, -1.60485669e-03, -7.12534296e-04,
       4.49306984e-03, 3.98186687e-03, 2.58656195e-03, 9.11320851e-04,
       -2.32429407e-03, 1.00787773e-04, 6.32455014e-03, -7.25707912e-04,
       8.61633755e-03, -2.45073391e-03, -7.47177470e-03, -1.04090674e-02,
       -1.16181122e-02, -4.73790150e-03, -8.48567672e-03, 5.10524260e-04,
       1.22290468e-02, 1.03235282e-02, -4.20729257e-03, -3.97327729e-03,
       -3.51483817e-03, -9.35406610e-03, 5.00589958e-04, -5.99253224e-03,
       -5.48463664e-04, 1.11998664e-02, -5.93129871e-03, -3.46479053e-03,
       2.95286678e-04, 1.24408270e-03, -2.31729285e-03, -1.86376029e-03,
       -7.61671399e-04, 4.34419187e-03, -3.64670577e-03, 1.65243633e-03,
       -3.80577520e-03, -1.71482062e-03, 1.20722002e-03, 5.58422040e-03,
       2.08022841e-03, 3.79429595e-03, 5.68711851e-03, 4.70546540e-03,
       8.10481701e-03, -5.78438304e-03, -3.91436601e-03, -4.81947651e-03,
       -1.02327168e-02, -1.33360538e-03, -4.05535055e-03,
       -7.95877248e-04, 9.72684193e-03, 1.08647905e-02, -5.98311378e-03,
       -1.17519940e-03, -1.36328483e-04, 4.90738312e-03, 3.04717198e-03,
       -3.24028297e-05, 6.77103829e-03, 1.46408351e-02, 6.93020876e-04,
       -4.52836929e-03, -4.34970343e-03, -3.26698017e-03, 1.59445440e-03,
       -4.09428525e-04, 5.59952168e-04, 3.41802090e-03, 4.21060296e-03,
       6.13510795e-03, -4.02982906e-03, -7.57427607e-03, -8.97921156e-03,
       -8.84261914e-03, -1.67015125e-03, -2.40664673e-03, 4.16031224e-04,
       6.99161505e-03, 1.05609382e-02, -5.00296755e-03, -1.77266484e-03,
       -1.28074246e-03, 4.83259419e-03, 4.19348537e-04, -1.92831794e-03,
       4.15351847e-03, 1.36714522e-02, 1.54870003e-02, -8.85135669e-04,
       -3.65790841e-03, -3.18381726e-03, -1.20934835e-02,
       -5.05893724e-03, -5.48003847e-03, 4.33264300e-04, 1.58772655e-02,
       7.63882045e-03, -6.16868818e-03, -5.28247049e-03, -4.68468247e-03,
       -7.00785406e-03, -2.30452255e-03, -4.31480911e-03, 3.02023324e-03,
       8.19497742e-03, 6.51551504e-03, -6.46351324e-03, -4.56622289e-03,
       -2.61436752e-03, -9.37833358e-03, -3.54130240e-03,
       -5.96356252e-03, -1.46009179e-03, 9.90850199e-03, 1.33003630e-02,
       -3.86545993e-03, -4.11590468e-03, -3.13226925e-03,
       -1.18001234e-02, -5.84173063e-03, -6.47762511e-03, 2.40637179e-04,
       1.39945354e-02, 7.61274388e-03, -5.18622249e-03, -6.99960999e-03,
       -4.13255300e-03, -9.21781640e-03, -5.31646796e-03,
       -1.17230031e-03, 2.02359236e-03, 1.00533739e-02, 4.50861733e-03,
       -4.89360513e-03, -3.64866783e-03, 1.63255120e-03, -4.82606981e-03,
       -1.16560678e-03, -8.38188641e-03, -1.09707089e-02, 5.18378010e-03,
       3.18621192e-03, -7.24262791e-03, -5.23806456e-03, -2.13310425e-03,
       -4.11750469e-03, 2.29484541e-03, -5.77154243e-03, -1.10387346e-02,
       4.57819412e-03, 2.45943409e-03, -5.26389107e-03, -5.30639431e-03,
       6.38264348e-04, -3.41297803e-03, -6.89551292e-04, -3.09841544e-03,
       -5.09543158e-03, 2.76548136e-03, -1.77049497e-03, -3.69938812e-03,
       -3.91097274e-03, 2.66485638e-03, -2.98147858e-03, 4.71879030e-03,
       -1.08454528e-03, -6.51929574e-03, 6.61609694e-04, 1.23709738e-02,
       -6.70516025e-03, -7.45870546e-03, -4.24985494e-03,
       -5.74828126e-03, 2.94876355e-03, -2.74935272e-03, -5.16391871e-03,
       1.02075646e-02, 1.25732804e-02, -3.84335523e-03, -1.05935782e-02,
       -9.18365456e-03, -7.40118278e-03, -6.35955203e-03,
       -6.37718989e-03, -9.01325792e-03, 1.08379433e-02, 4.55410453e-04,
       -4.70931176e-03, -5.69673488e-03, 1.94825072e-04, -4.49660979e-03,
       6.30919961e-03, 7.08873384e-04, -2.07532011e-03, 1.82799203e-03,
       5.03849238e-04, -6.56771427e-03, -6.53085113e-03, -5.29203704e-03,
       -5.63647365e-03, -1.72237260e-03, -1.37919118e-03,
       -2.96595437e-03, 1.99137162e-03, 1.11192018e-02, -3.32483067e-03,
       -9.61556099e-03, -6.77177822e-03, 2.45692354e-04, -4.31059767e-03,
       -5.21114515e-03, -7.24111544e-03, 6.19761599e-03, 1.04995435e-02,
       4.07213671e-03, -3.45947547e-03, -4.81728278e-03, 2.84900353e-03,
       -2.69535091e-03, -4.59558144e-03, -6.34695077e-03, 4.78756474e-03,
       -3.87497875e-03, -6.31896080e-03, -7.84227625e-03,
       -4.39813826e-03, 2.01995624e-03, -7.24123500e-04, 1.80919270e-03,
       8.92815471e-04, -5.67325973e-04, -3.12220742e-04, -6.12644060e-03,
       -5.74142439e-03, -9.21409344e-04, 3.31886928e-03, 3.60227237e-03,
       2.79088854e-03, 2.76179693e-04, -3.37640964e-03, 1.21847326e-02,
       2.83722789e-03, -9.49889945e-04, -9.80218966e-03, -3.83932982e-03,
       -8.25584866e-03, -5.20862034e-03, -6.67467853e-03, 2.55642226e-03,
       9.22236312e-03, 6.88117743e-03, -1.46291545e-03, -9.40735079e-03,
       3.03034205e-03, -4.02894861e-04, -6.75240939e-04, -3.98459425e-03,
       5.16373804e-03, 2.76750792e-03, -3.43358517e-03, -8.44213367e-03,
       -7.69940764e-03, -3.31726810e-03, -2.92011187e-03, 3.43948661e-04,
       -1.33879739e-03, 5.62213536e-04, 6.87853992e-03, 3.57259740e-03,
       -2.39630486e-03, -6.00874517e-03, 3.47780879e-03, 3.47997458e-03,
       1.43400708e-03, 3.93583672e-03, 8.52196570e-03, 5.69988182e-03,
       8.13374668e-03, 2.68091029e-03, -1.95216795e-03, 5.62403351e-03,
       2.84396508e-03, -3.56020243e-03, -6.25259802e-03, -6.22250140e-04,
       5.47121465e-03, 9.40537080e-03, 3.69210052e-03, -5.93012758e-03,
       -6.94150012e-03, -2.95348023e-03, -2.29754811e-03,
       -6.13717642e-03, -4.53647645e-03, 5.08211693e-03, 4.55061719e-03,
       2.07661884e-03, -1.75304990e-03, -6.70163892e-04, 1.10357534e-03,
       -1.65237219e-03, -1.81299029e-03, 2.92550051e-03, 4.09442559e-03,
       1.70376338e-03, -5.69194846e-04, -6.62712241e-03, -1.08225774e-02,
       -7.87216891e-03, -6.34412235e-03, -5.60947182e-03, 1.08779722e-03,
       6.11245586e-03, 1.18719554e-02, 6.83112070e-03, -2.18111463e-03,
       -8.76167789e-03, -1.77326053e-03, -1.11861445e-03,
       -2.32886523e-03, -1.73244940e-03, 1.41007442e-03, 7.82385841e-03,
       5.30269416e-03, 5.75102214e-03, 1.31918851e-03, 6.56029163e-03,
       3.45829222e-03, -2.73687096e-04, -3.45269754e-03, 4.38831467e-03,
       5.68666821e-03, 3.52281029e-03, -5.29369712e-03, -1.52445594e-02,
       -5.46496082e-03, -1.69802539e-03, -1.51351065e-04, 3.69750522e-03,
       2.79830908e-03, 4.63276217e-03, 6.85705943e-03, -2.40981928e-03,
       -5.42739313e-03, -4.88966063e-04, 9.42215731e-04, 1.39842380e-03,
       9.65419516e-04, -1.11140637e-03, 2.62477505e-03, 6.04338595e-04,
       1.19557499e-03, 9.73862875e-03, 9.19117220e-03, 3.80733097e-03,
       -4.01302183e-04, -5.07631479e-03, -1.65870506e-03,
       -1.73596389e-04, -3.91812436e-03, -2.51955958e-03, 5.79223828e-03,
       6.16875011e-03, 2.53096642e-03, -1.93365838e-03, -2.90154014e-03,
       3.64210736e-03, 2.45106360e-03, 4.10420122e-03, -4.16794233e-03,
       -9.59728146e-04, 1.61022751e-03, 3.00027942e-03, -1.91461365e-03,
       -1.94810866e-03, 1.13707455e-03, 2.32436741e-03, 3.23804165e-03,
       -1.50621519e-04, -4.32052650e-03, -5.56363339e-05,
       -2.50406167e-03, -2.56025116e-03, -3.42974439e-04,
       -2.34162970e-03, -1.39850809e-03, 3.54180491e-04, -1.49310532e-03,
       4.01697773e-03, 2.72012921e-03, 2.81353504e-03, -1.00556947e-03,
       -1.36713020e-03, -2.13985983e-03, 1.11710967e-03, 5.80868078e-03,
       4.14264359e-05, 2.28936624e-04, 3.94602073e-03, -3.72781954e-03,
       -4.47680475e-03, -4.40265976e-05, 6.56426128e-05, -1.82740827e-04,
       4.97891009e-03, 3.04791797e-03, 7.63330434e-04, -4.90733073e-04,
       -1.69734005e-03, -1.18558970e-03, 1.71551085e-03, -9.46666929e-04,
       2.56908732e-03, 4.40098764e-03, 1.93428411e-03, -2.33673654e-03,
       1.82935502e-03, 7.09013664e-04, 6.64645631e-04, 5.40824039e-05,
       3.81526537e-03, 5.85331395e-03, 4.29573702e-03, -2.96549918e-03,
       -8.14078096e-03, 5.24668023e-04, -1.38710719e-03, -3.57417809e-03,
       4.09455446e-04, 2.62214453e-03, 9.15847078e-04, 4.23095515e-03,
       -3.77525669e-03, -8.00261553e-03, -2.38670254e-04, 1.97530142e-03,
       -8.53856618e-05, -3.25973815e-04, 4.12949501e-03, 5.45213930e-03,
       3.06976656e-03, -3.38430516e-03, -8.84408224e-03, 5.34879626e-04,
       1.26747810e-03, 5.56882354e-04, 2.87718722e-03, 7.74333347e-03,
       2.24653841e-03, 3.46145220e-03, -3.68480105e-03, -6.23303559e-03,
       3.07827792e-03, 5.56712085e-03, 3.44756991e-03, 6.38766866e-03,
       -4.29425895e-01 ]
