%YAML:1.0
---
my_detector: !!opencv-object-detector-hog
   winSize: [ 64, 128 ]
   blockSize: [ 16, 16 ]
   blockStride: [ 8, 8 ]
   cellSize: [ 8, 8 ]
   nbins: 9
   derivAperture: 1
   winSigma: 4.
   histogramNormType: 0
   L2HysThreshold: 2.0000000000000001e-01
   gammaCorrection: 1
   nlevels: 64
   signedGradient: 0
   SVMDetector: [ 9.86788422e-03, 8.32890999e-03, 9.03003966e-04,
       -2.40569934e-03, -8.34248867e-03, -6.20533153e-03,
       -6.90575631e-04, 3.14356806e-03, 6.33967295e-03, 9.71818808e-03,
       3.05033755e-03, -2.01097014e-03, -9.54333320e-03, -3.74261616e-03,
       -8.92115012e-03, -1.60027703e-03, 2.10668007e-03, 8.96169990e-03,
       3.81887821e-03, 2.20980030e-03, -1.12190237e-03, -2.83915363e-03,
       -8.56232271e-03, -8.12223554e-03, -3.83552909e-03, 4.15451732e-03,
       5.12064155e-03, 2.85295141e-03, 4.58446285e-03, 8.42871494e-04,
       -5.48155513e-03, -4.38695261e-03, -1.31592099e-02,
       -2.19664723e-03, 2.67451769e-03, -7.50045583e-04, 1.09891351e-02,
       5.75212250e-03, -4.66653262e-04, -6.21289993e-03, -6.97173551e-03,
       -7.70129869e-03, -4.91811009e-03, -5.09503996e-04, 6.71812054e-03,
       1.73173007e-02, 9.93287936e-03, 3.64060019e-04, -4.89622355e-03,
       -6.09824026e-04, -6.16230490e-03, -2.34798950e-04, 3.71240615e-03,
       1.31455893e-02, 2.81145680e-04, 6.34679710e-03, -1.43224176e-03,
       -8.14863853e-03, -4.74500889e-03, -6.30741706e-03,
       -8.25570431e-04, -5.30785765e-04, -3.99514055e-03, 4.79077687e-03,
       8.67253356e-03, -3.29859066e-03, -1.00647621e-02, 2.08742381e-03,
       -4.94627329e-03, 5.54091809e-03, 4.92931111e-03, 2.49080476e-03,
       8.71900655e-03, 5.91703877e-03, -3.61153181e-03, -4.04478423e-03,
       -8.34164117e-03, -4.60664043e-03, 2.46807816e-03, 3.24527943e-03,
       8.95928685e-03, 7.72361225e-03, 5.64701669e-03, -2.38547870e-03,
       3.13323544e-04, -5.69949672e-03, -4.68300364e-04, 3.66299623e-03,
       2.25841068e-03, 8.89419299e-03, -1.01674232e-03, 6.38614502e-03,
       -6.26677694e-03, -9.13007930e-03, -7.15698069e-03, 2.15379591e-03,
       7.81020615e-03, 5.89774502e-03, -1.84148352e-03, 5.13694831e-04,
       1.01348087e-02, 2.71513127e-03, -5.04058832e-03, -4.63269698e-03,
       5.35829132e-03, 8.96842405e-03, 9.33148060e-03, 9.31099290e-04,
       6.06319774e-03, -6.02004700e-04, -6.32150052e-03, -2.24256120e-03,
       -4.34250291e-03, -1.19577383e-03, 4.04712657e-04, 1.49111904e-03,
       5.97807486e-03, 8.30516126e-03, 3.68038029e-03, -2.95959739e-03,
       1.91219570e-03, 1.56458456e-03, 2.36380775e-03, 6.10857096e-04,
       8.04920506e-04, 7.47372117e-03, -2.65452522e-03, 6.74054027e-03,
       -8.59614665e-05, -7.92874082e-04, -2.55703315e-04, 2.42912886e-03,
       2.76282127e-03, 2.91895214e-03, -2.79599265e-03, 2.08477676e-03,
       4.90885880e-03, 5.38065284e-03, 1.37421885e-03, 1.92023418e-03,
       5.37799904e-03, 3.60881654e-03, 3.51723284e-03, 3.03307991e-03,
       3.84939834e-03, 3.02661117e-03, 4.38903313e-04, 2.70647183e-03,
       1.13016134e-03, 6.13529526e-04, -2.13013450e-03, -3.67886666e-03,
       2.99280789e-03, 9.67345480e-03, 2.22580577e-03, -1.28154899e-03,
       2.64742528e-04, -3.55669181e-03, 1.77726825e-03, -1.56782148e-03,
       -7.37048758e-05, 8.62243120e-03, -2.28862208e-03, -5.79776126e-04,
       7.28460611e-04, -7.18392330e-05, 4.08188149e-04, 9.95188137e-04,
       7.96874345e-04, -1.06425912e-04, -2.09754379e-03, 2.71384197e-05,
       3.76443402e-03, -3.77888849e-04, -1.82654813e-03, -2.99334433e-03,
       -5.76378021e-04, -2.39595515e-03, -1.88262726e-04, 2.82509456e-04,
       7.74105499e-03, -3.88748100e-04, -4.77462588e-03, -3.60102276e-03,
       -5.39553026e-03, -1.48297113e-03, -2.12938618e-03,
       -2.44483119e-03, 5.54134697e-03, 4.65786178e-03, 2.34588078e-04,
       -2.65889079e-03, -2.66122166e-03, 3.33398767e-03, 8.41299538e-04,
       -2.31514988e-03, -2.14965618e-03, -4.99669477e-05, 7.40243215e-03,
       9.73910186e-03, -4.68529062e-03, -5.05984435e-03, -2.43186788e-03,
       -2.13777297e-03, -4.68875468e-03, -4.34129033e-03, 3.74390394e-03,
       1.04034226e-02, 2.77843629e-03, -3.45671433e-03, -1.07260898e-03,
       -9.01597552e-04, -2.50028051e-03, -4.48833453e-03,
       -3.55679286e-03, 7.88877252e-03, 2.26123817e-03, -3.69628635e-03,
       -6.63054315e-03, -1.83633633e-03, 2.45495769e-03, 2.01011961e-03,
       -2.44184840e-03, -2.48288433e-03, -1.27403604e-04, 7.85582597e-05,
       -8.12954269e-03, -5.60248783e-03, 2.82116188e-03, -2.43953476e-03,
       2.48171389e-03, -2.85656820e-03, -4.64378530e-03, -3.49417026e-03,
       1.01381075e-02, -3.95470764e-03, -6.26519276e-03, 1.13263750e-03,
       1.11644354e-03, -1.77742564e-03, -6.47194171e-03, -3.49205662e-03,
       7.70160090e-03, 6.31364295e-03, -4.70511802e-03, -4.35175281e-03,
       2.41992716e-03, -3.79505637e-03, -2.33965414e-03, -7.05088954e-03,
       -7.41470000e-03, 5.74231334e-03, -2.67554977e-04, -5.04578045e-03,
       1.52577041e-03, 7.92771112e-03, 2.29251757e-03, 6.34430069e-03,
       -2.27548182e-03, -4.52944171e-03, -2.12959573e-03,
       -3.88088031e-03, -4.37743403e-03, 2.90237810e-03, 6.68330002e-04,
       -4.18789545e-03, 2.48821010e-03, -6.12849463e-03, -8.15713592e-03,
       -4.72971238e-03, 8.10139347e-03, -3.41233006e-03, -1.28492736e-03,
       4.39270074e-03, -1.58834970e-03, 1.34655845e-03, -4.73092124e-03,
       -5.15685743e-03, 1.05252732e-02, 5.08965552e-03, -1.09493583e-02,
       -4.21016477e-03, -3.86155816e-03, -9.01293103e-03,
       -2.78460863e-03, -6.82751462e-03, -5.52385021e-03, 7.97020923e-03,
       -9.39616992e-04, 8.39182758e-05, 2.31990428e-03, -9.99397453e-05,
       -2.57962313e-03, 2.86994549e-03, -3.36858165e-03, -4.69664251e-03,
       -2.85314303e-03, -1.23623654e-03, -2.30763224e-03, 9.23687185e-04,
       2.41309963e-03, -3.81496619e-03, 2.47281394e-04, -1.45882333e-03,
       -3.29439808e-03, 6.55765180e-04, 5.13118319e-03, -8.79919622e-03,
       -2.34557269e-03, -2.79762549e-03, -8.48584436e-03,
       -4.14915674e-04, -1.23490731e-03, 1.61948521e-03, 9.96454805e-03,
       4.98957839e-03, -7.08142621e-03, -2.07629497e-03, -1.63453189e-03,
       -4.44305874e-03, -3.10580246e-03, 2.40422413e-03, 8.92500579e-03,
       1.02062710e-02, -4.86558070e-03, -4.79239970e-03, -1.30013342e-03,
       -2.55297101e-03, -6.22866023e-03, -4.51310771e-03,
       -2.87417136e-03, -2.92807585e-03, -1.01536112e-04, 1.74270116e-03,
       -2.76216725e-03, -3.60081857e-03, 1.84878227e-04, 1.52170740e-03,
       -3.47187091e-03, -2.52584089e-03, 3.51409835e-06, 1.81922968e-03,
       5.60888788e-04, -8.05519428e-03, -3.24418792e-03, -3.14146769e-03,
       -4.02640551e-03, -6.23069238e-03, 7.53068452e-05, 3.13822203e-03,
       7.66828703e-03, 1.08570617e-03, -6.07809983e-03, -6.08579395e-03,
       2.59468588e-03, 5.80700347e-03, -2.18847487e-03, -3.00977379e-04,
       4.37137438e-03, 7.53143709e-03, -1.04260887e-03, -3.87838250e-03,
       -4.75428440e-03, 1.88585068e-03, 1.00970743e-02, -8.36892228e-04,
       -3.11309821e-03, 6.73391150e-06, 1.85750495e-03, -6.26546424e-03,
       -5.68685262e-03, -3.87722044e-03, -7.18829827e-03, 2.30824837e-04,
       -6.46111276e-03, -4.07012366e-03, 2.54026358e-03, 1.08585984e-03,
       -2.18297166e-04, -4.99769952e-03, -5.98507840e-03, 5.73772285e-03,
       1.58119686e-02, -5.22748269e-05, -5.62957255e-04, 4.74298745e-03,
       3.14915297e-03, -5.53247798e-03, -5.38755162e-03, -3.92294349e-03,
       -4.31773020e-03, 1.84047210e-03, -7.48445885e-03, -2.24232906e-03,
       6.87240297e-03, 6.10999705e-04, -1.27840415e-03, 9.47793655e-04,
       4.09579166e-04, -2.78234808e-03, -8.50349851e-03, -6.49451045e-03,
       8.06538010e-05, 6.68558106e-03, 2.91921315e-03, -3.80848115e-03,
       -1.00234247e-05, 1.79934863e-03, 4.24450962e-03, -3.58277303e-03,
       -4.53641638e-03, 4.86662332e-03, 3.76267987e-03, 3.24897701e-05,
       -5.69762755e-03, -3.21756396e-03, -7.79646041e-04,
       -6.36551937e-04, -8.21145950e-04, -1.69806927e-03, 5.27958898e-03,
       9.37614217e-03, 1.54195435e-03, -6.54610479e-03, -3.99296964e-03,
       2.94977031e-03, 6.14521559e-03, 3.83627391e-03, 2.32355669e-03,
       6.86823716e-03, 8.47429782e-03, -3.76072666e-03, -7.09009916e-03,
       -3.41678434e-03, 7.81565614e-04, 5.55988215e-03, 9.27529065e-04,
       -3.56602040e-03, 4.30848636e-03, 2.48394650e-03, 5.47109230e-05,
       -4.68291016e-03, -3.01105576e-03, 4.24212689e-04, 5.37659787e-03,
       1.94863335e-03, -2.09193537e-03, 3.19091091e-03, 3.63335526e-03,
       -6.64868392e-04, -1.00605031e-02, -3.23936017e-03, 2.59258924e-03,
       8.31136573e-03, 3.51588731e-03, 1.48570805e-03, 5.07625751e-03,
       5.37694991e-03, -4.72707395e-03, -8.84587504e-03, -6.89202268e-03,
       -1.75056362e-03, 5.01299230e-03, 4.07286175e-03, 4.52264631e-03,
       1.93541788e-03, 2.69012526e-03, -9.25768836e-05, 2.25061623e-04,
       -4.38958923e-05, 8.79033410e-04, 2.37470237e-03, -5.24264004e-04,
       -6.34573342e-04, 2.67620781e-03, 1.66054684e-04, 5.99477382e-04,
       1.25386496e-03, 2.93016643e-03, 1.12015463e-03, -3.97343189e-03,
       -3.98923364e-03, 1.59028205e-04, 4.36254404e-03, 2.22874619e-03,
       2.79662153e-03, -3.50957899e-03, -2.94329505e-03, 1.17136037e-03,
       3.50181619e-03, -1.71218257e-04, 2.59087275e-04, 1.02870143e-03,
       5.79415006e-04, -1.98707660e-03, -1.40269496e-03, -6.55052834e-04,
       6.31329254e-04, 2.32118252e-03, -3.25978221e-03, -4.01318353e-03,
       2.92855571e-03, 2.40600226e-03, -1.16965419e-03, 2.97327898e-03,
       2.24334793e-03, 1.82391179e-03, -3.17821908e-03, -8.88113771e-03,
       5.49011573e-04, 5.85774845e-03, 8.98858812e-03, 5.96806873e-03,
       -9.90838511e-04, 1.81924715e-03, 4.04099980e-03, 2.79934797e-03,
       -4.30900883e-03, 3.23320716e-03, 3.63486912e-03, 4.07603616e-03,
       -5.83168061e-04, 3.62249766e-03, 1.75017677e-03, 1.40536169e-03,
       1.40893011e-04, -1.12946825e-02, -4.17139614e-03, 4.76102903e-03,
       7.97685981e-03, 4.27805120e-03, -6.31600036e-04, 3.32330517e-03,
       2.46895081e-03, 3.11903132e-04, -6.44777529e-03, -1.54161325e-03,
       2.74952431e-03, 6.73177605e-03, 6.24127802e-04, -5.46311680e-03,
       -1.60523993e-03, -3.93684534e-03, -1.21793710e-03,
       -5.64636104e-03, -5.13625611e-03, -5.05258515e-03,
       -3.79712845e-04, -3.31213255e-03, -4.19606408e-03, 1.86606066e-03,
       -4.05577710e-03, -5.36341546e-03, 1.39240338e-03, -7.08938949e-03,
       -2.28679972e-03, 2.81565706e-03, -3.85136320e-03, -1.70818041e-03,
       4.33718367e-03, 3.86101240e-03, 1.55823084e-03, 4.28943807e-04,
       -1.77383388e-03, -4.19388944e-03, -1.46131357e-03,
       -9.96973598e-04, -6.67018990e-04, 1.03152003e-02, 5.49201109e-03,
       2.91491789e-03, 8.21291748e-03, 2.22105673e-03, 4.70420811e-03,
       2.45173415e-03, -1.69784151e-04, -5.42912912e-03, 4.42131283e-03,
       -5.37476921e-03, -4.58945986e-03, -6.47333392e-04,
       -9.13305208e-04, 1.13933859e-03, 1.37206796e-03, -5.71832201e-03,
       -3.43617261e-03, 8.07825569e-03, -2.81832181e-03, -6.95506483e-03,
       -3.30178533e-03, -1.40766741e-03, 1.81920128e-03, 3.51297157e-03,
       -7.32247857e-03, -1.19440258e-03, 1.16153341e-02, 2.86006345e-03,
       -6.52470917e-04, 5.85319521e-03, 7.83959497e-03, 9.06062312e-03,
       4.61113220e-03, -4.90205316e-03, 2.34469934e-03, 1.70073342e-02,
       1.04359034e-02, 2.63720199e-06, -4.55763191e-04, 1.02625112e-03,
       2.69711716e-03, 4.63763624e-03, -3.96917714e-03, -7.80059630e-03,
       4.34162747e-03, -2.25834153e-03, -7.98821636e-03, -5.62671013e-03,
       1.60464505e-03, 2.39452114e-03, 4.53737983e-03, -7.45588960e-03,
       -9.88634396e-03, 4.95820120e-03, -1.59011804e-03, -7.46870600e-03,
       -8.29885900e-03, 4.42170817e-03, 4.49847616e-03, 7.77019700e-03,
       -4.22564615e-03, -1.78852072e-03, 1.48887997e-02, 1.18805422e-02,
       1.12768554e-04, -6.44041412e-03, -4.98109544e-03, -3.57219274e-03,
       2.42543267e-03, -7.52029987e-03, 3.39377136e-03, 1.79590415e-02,
       1.58386044e-02, -4.44871886e-03, -7.62439100e-03, -2.27676588e-03,
       1.36291597e-03, 4.27961437e-04, -4.54377802e-03, -7.15188449e-03,
       5.56704495e-03, -1.01091841e-03, -3.24657350e-03, -5.83664840e-03,
       3.58991278e-03, 1.82576303e-03, 1.03354617e-03, -5.53522259e-03,
       -4.00341727e-04, 1.10177919e-02, 2.02115718e-03, -5.43486886e-03,
       -8.25066026e-03, 2.85590463e-03, 2.12164479e-03, -7.21847988e-04,
       -7.58343749e-03, 2.79490394e-03, 2.23316662e-02, 1.29913483e-02,
       -5.08920196e-03, -6.27309689e-03, -2.33770115e-03,
       -1.66884181e-03, -2.07497319e-03, -5.66698331e-03, 4.07924643e-03,
       2.51768827e-02, 1.09073333e-02, -8.31768382e-03, -1.13142217e-02,
       -6.39885373e-04, -4.18045884e-03, -4.97286394e-03,
       -7.63945840e-03, 1.15981442e-03, 1.15086231e-02, 5.18940296e-03,
       -5.85302943e-03, -6.77441293e-03, -2.77209934e-03,
       -1.59995188e-03, -1.82090118e-03, -6.10445207e-03, 1.40685064e-03,
       1.64353903e-02, 9.06691235e-03, -3.26426933e-03, 4.68463084e-04,
       -2.99256667e-03, -4.32072347e-03, -2.67468439e-03,
       -5.57922805e-03, 1.62754382e-03, 2.49290541e-02, 9.61700547e-03,
       -1.10274712e-02, -1.47217335e-02, -7.54613476e-03,
       -5.15723927e-03, -8.61612707e-03, -1.30557390e-02,
       -3.64125217e-03, 1.95958503e-02, 1.21384766e-02, -4.39540856e-03,
       -6.35618204e-03, -6.96489681e-03, -5.11688599e-03,
       -8.36941134e-03, -1.35277994e-02, 3.25715239e-03, 1.66187510e-02,
       4.37771529e-03, -5.02950558e-03, -3.99501342e-03, -7.27390125e-03,
       -9.05455835e-03, -6.13649329e-03, -8.07531644e-03, 8.56528524e-03,
       1.63102821e-02, 1.90398819e-03, -2.49572122e-03, -9.11112409e-03,
       -8.75328202e-03, -9.74896364e-03, -5.25120832e-03, 4.13556304e-03,
       -2.66080396e-03, 1.30801247e-02, 7.31698051e-03, -2.07343814e-03,
       -2.53723189e-03, -4.97421389e-03, -3.89655191e-03,
       -5.75340400e-03, -1.20325610e-02, 5.12423273e-03, 1.74951851e-02,
       2.01276387e-03, -1.55557634e-03, -1.41642219e-03, -5.21313911e-03,
       -3.32283671e-03, -2.41917605e-03, 6.97526033e-04, 1.01724667e-02,
       1.22428522e-03, -2.68141460e-03, -2.00008089e-03, -6.90933783e-03,
       -6.82166358e-03, -8.21907446e-03, -3.96007672e-03, 7.23334355e-03,
       8.94591678e-03, -2.97329575e-03, -6.77453261e-03, -3.61010619e-03,
       -8.34781304e-03, -6.74441876e-03, -7.27187330e-03,
       -2.61813402e-03, 7.75874825e-03, 5.31607587e-03, 3.02530173e-03,
       -2.08690763e-03, -2.97998264e-03, -2.88397027e-03,
       -4.63070860e-03, -2.32549990e-03, -4.98864474e-03, 1.39697385e-03,
       2.49992590e-03, -2.09944462e-03, -3.30935046e-03, -5.49051352e-03,
       -4.05592192e-03, -3.78476479e-03, 4.27381776e-04, -2.63398304e-03,
       3.00075946e-04, 9.08795465e-03, -4.88588214e-03, -6.82981592e-03,
       -3.36470013e-03, -5.45906881e-03, -2.78477487e-03,
       -3.17205209e-03, -1.59716315e-03, 1.07306633e-02, 4.39152075e-03,
       -1.32207414e-02, -8.31742585e-03, -5.36855171e-03,
       -1.19416695e-02, -3.45075293e-03, -8.82981811e-04, 4.45196638e-03,
       6.98632235e-03, 4.35597869e-03, -6.39860984e-03, -4.83455742e-03,
       -3.28428461e-03, -1.96298724e-03, -2.11050012e-03, 2.93448963e-03,
       4.11415566e-03, 4.44192812e-03, 5.09200851e-03, -6.34220289e-03,
       -5.05968602e-03, -2.98205763e-03, -5.96147496e-03,
       -5.90922777e-03, 9.64415609e-04, 6.93415431e-03, 6.55981293e-03,
       4.87817946e-04, -1.10214911e-02, -4.00587404e-03, -3.32210213e-03,
       -9.01811942e-03, -2.46533891e-03, 6.12160249e-04, 7.57048465e-03,
       5.67441992e-03, -2.10854574e-03, -8.00614059e-03, -1.66880758e-03,
       -3.36055155e-03, -3.31004476e-03, -2.54455907e-03,
       -1.28556901e-04, 6.36100117e-03, 5.22996346e-03, 7.25879008e-03,
       -3.94805707e-03, 7.55598769e-04, 4.27972700e-04, -1.40094536e-03,
       -3.71310418e-03, 1.54266483e-03, 6.75831409e-03, 9.20328964e-03,
       4.15354874e-03, -3.92852584e-03, 9.07420355e-04, -1.71012449e-04,
       -7.43609387e-04, -3.37674073e-03, -2.04010145e-03,
       -1.01484277e-03, 5.37413498e-03, -5.52013144e-03, -6.83613215e-03,
       -4.19675093e-03, -4.57963115e-03, -2.51012924e-03,
       -4.63185646e-03, -1.66530733e-03, 6.07478898e-03, 5.28524304e-03,
       -5.39610675e-03, -8.26328434e-03, -8.08828976e-03,
       -2.54032132e-03, 1.88627047e-03, -1.30326545e-03, 7.51419808e-04,
       5.41620422e-03, 2.00901157e-03, 3.21989093e-04, -3.56445112e-03,
       -3.80352745e-03, -4.51872824e-03, -4.65770205e-03,
       -7.05695106e-03, -2.95211840e-03, 1.18568470e-03, 4.09819977e-03,
       -7.26180058e-03, -5.23660006e-03, -6.24204334e-03,
       -3.76892905e-03, -3.81109375e-03, -6.10394310e-03,
       -1.88196904e-03, 2.12117122e-03, -2.79428437e-04, -4.77342447e-03,
       -5.64805837e-03, -5.46817062e-03, 3.02964426e-03, 1.38102164e-02,
       8.88257229e-04, 2.67978129e-03, 1.44742737e-02, 4.58927825e-03,
       -1.01605672e-02, -5.59520442e-03, -5.21122525e-03,
       -5.56603773e-03, -3.22188460e-03, -1.05866585e-02,
       -7.87157100e-04, 9.15546995e-03, 1.67547585e-03, -9.24385991e-03,
       -3.21110128e-03, -3.03554372e-03, -3.27367714e-04, 7.77518190e-03,
       -1.44935062e-03, 4.03173035e-03, 1.02783749e-02, 1.08426495e-03,
       -1.71190780e-02, -1.02325883e-02, -7.34926714e-03,
       -1.05733052e-02, -1.12489946e-02, -1.53571311e-02, 3.37174977e-03,
       8.48454330e-03, -2.80935620e-03, -1.29714692e-02, -5.93868457e-03,
       -5.42662223e-04, -1.68733520e-03, -1.19875988e-03,
       -3.03061819e-03, 5.19769080e-03, 1.38179287e-02, 1.70802174e-04,
       -1.05042029e-02, -4.55356762e-03, 1.99863664e-03, 4.31076763e-03,
       3.43327387e-03, 2.06911610e-03, 6.41094986e-03, 8.34732037e-03,
       -3.46088852e-03, -1.48900561e-02, -9.85505152e-03,
       -5.01012849e-03, -6.83184341e-03, -1.10930074e-02,
       -1.04143424e-02, 1.16664991e-02, 1.55322524e-02, 3.58953793e-03,
       -1.31946402e-02, -6.18107943e-03, -5.10850223e-04,
       -1.13277056e-03, -3.88869317e-03, -2.16679275e-03, 1.24876052e-02,
       1.89178791e-02, -7.50725099e-04, -9.23588220e-03, -2.52476009e-03,
       -1.71546277e-03, 1.80477466e-04, -4.82886506e-04, 1.33944594e-03,
       4.92377859e-03, 5.93581144e-03, -3.68729047e-03, -5.00463462e-03,
       -3.75392335e-03, -5.52288303e-03, -7.33690744e-04,
       -8.39365675e-05, 4.17268975e-03, 1.65830611e-03, 1.46370090e-03,
       -2.29135063e-03, -1.10160429e-02, -3.37967603e-03,
       -1.31661771e-03, -2.11490784e-03, -1.95811596e-03,
       -1.94607105e-03, 8.91224109e-03, 1.21716326e-02, -1.44534872e-03,
       -2.99838837e-03, -9.44302883e-04, -1.71312399e-03,
       -8.26008327e-04, -3.17297154e-03, 1.68418302e-03, 6.53161341e-03,
       7.39168003e-03, 1.14818651e-03, -8.90001131e-04, 6.04453497e-04,
       -8.49827484e-04, 1.54636346e-03, -7.46635627e-03, -9.38987883e-04,
       -1.01342273e-03, -1.08245551e-03, 3.61279293e-04, 2.33059889e-03,
       1.21908879e-03, 1.13271584e-03, -4.07343823e-03, -1.04327602e-02,
       -5.24482178e-03, 2.92158523e-03, 4.07237606e-03, 6.85106614e-04,
       1.79085322e-03, 2.76402500e-03, -2.23675324e-03, -4.93528368e-03,
       -1.22190211e-02, -9.28810216e-04, 5.45399543e-03, 6.12083077e-03,
       4.36365930e-03, 6.00388180e-03, 6.35900255e-03, -8.96991638e-04,
       -6.43291743e-03, -9.57218651e-03, -2.96639814e-03, 8.43075011e-03,
       9.00950190e-03, 8.79796874e-03, 4.23919596e-03, 1.87040830e-03,
       1.27743324e-03, -5.22356073e-04, -1.26337549e-02, -4.49728267e-03,
       3.41466418e-03, 5.00767166e-03, 3.62150348e-03, -1.02477486e-03,
       1.33254461e-03, 2.31146580e-03, -1.03039888e-03, -1.08618103e-02,
       -6.06365316e-03, -2.22391286e-03, 2.98097497e-03, -2.21739570e-03,
       7.50515936e-03, 7.29220454e-03, 7.48029386e-04, -6.12670789e-04,
       -1.36141442e-02, -1.86241127e-03, 5.29633928e-03, 8.37020017e-03,
       9.02677514e-03, 5.43067418e-03, 5.65097295e-03, 3.83099518e-03,
       -2.29215552e-03, -1.12005640e-02, -5.06335730e-03,
       -1.18225208e-03, 2.50186794e-03, 3.80464899e-03, -5.77432895e-03,
       3.08146258e-03, 3.77086597e-03, 3.72820953e-03, 1.39236261e-04,
       -2.36127642e-03, -6.99424976e-03, -3.13625671e-03,
       -7.54866423e-03, -3.23736412e-03, 9.81440209e-03, 9.88746155e-03,
       1.97389652e-03, 9.59482230e-03, 5.07092616e-03, 6.18047640e-03,
       4.73892083e-03, -2.04845401e-03, -7.38463597e-03, -2.45568971e-03,
       -2.82822223e-03, -3.16228508e-03, 1.19446812e-03, -2.48254952e-03,
       -5.20225009e-03, -3.00090294e-03, -5.17146243e-03,
       -5.77751780e-03, 1.98628777e-03, 3.44438828e-03, 4.31348430e-03,
       1.12761259e-02, 3.70202609e-03, 3.62231629e-03, 3.52353160e-03,
       -3.61256627e-03, -8.38237535e-03, 3.73518514e-03, 3.63369967e-04,
       -1.00394688e-03, 4.61756671e-03, 8.32111575e-03, 9.98881087e-03,
       8.74412805e-03, -5.56259044e-03, -4.25114296e-03, 1.21849095e-02,
       6.90164557e-03, 3.97849502e-03, 6.12034416e-03, 2.55704275e-03,
       4.31283610e-03, 5.96390525e-03, -6.90261554e-03, -1.05529409e-02,
       -2.05617421e-03, -1.67720288e-03, 3.14287702e-03, 2.46709702e-03,
       4.38897591e-03, 5.12632309e-03, 4.66859853e-03, -7.39026302e-03,
       -4.13182750e-03, 5.42178750e-03, 2.45316909e-03, 7.49788247e-03,
       7.03566289e-03, 9.90271335e-04, 1.64308515e-03, -7.89503800e-04,
       -3.38288350e-03, 1.86786347e-03, 2.08453275e-02, 2.28318404e-02,
       4.75865090e-03, 1.11431313e-04, -7.72096077e-03, -5.80248097e-03,
       -3.07398336e-03, -5.42942993e-03, 3.87368188e-03, 2.69955285e-02,
       2.14844104e-02, -6.92705065e-03, -7.84101803e-03, -1.46568818e-02,
       -9.13048629e-03, -7.67226517e-03, -9.32516251e-03,
       -7.39011867e-03, 1.38998237e-02, 1.14287678e-02, 6.79459563e-03,
       8.23969021e-03, -5.92939323e-03, -5.29928831e-03, -4.85465396e-03,
       -8.18952173e-03, -7.21324096e-03, 1.42196296e-02, 1.01960413e-02,
       -4.79112845e-03, -4.34688525e-03, -1.81371029e-02,
       -1.54840508e-02, -1.24834972e-02, -1.23510510e-02, 1.92495473e-02,
       3.35334986e-02, 2.23475657e-02, -9.46883857e-03, -8.85544531e-03,
       -1.20058330e-02, -5.66870254e-03, -3.62066505e-03, 3.45794018e-03,
       1.02013648e-02, 2.69527696e-02, 1.12284757e-02, -8.47820751e-03,
       -1.04287080e-02, -5.38243121e-03, -3.72926518e-03,
       -4.27952176e-03, -1.74582924e-03, -1.04027754e-03, 1.08781196e-02,
       4.53420309e-03, -1.25299180e-02, -7.74184382e-03, -1.62111055e-02,
       -1.28395557e-02, -1.05251148e-02, -2.88501172e-03,
       -3.83320544e-03, 2.89571332e-03, -6.32113125e-03, -1.24350870e-02,
       -1.07155303e-02, -9.14152339e-03, -1.16035193e-02,
       -8.71322677e-03, -3.98426922e-03, 6.24265568e-03, 2.15671640e-02,
       1.11763738e-02, -7.58338487e-03, -1.21990861e-02, -8.69636983e-03,
       -3.41111468e-03, -6.13467302e-03, -7.06784800e-03, 1.13299722e-03,
       1.85108799e-02, 1.28070787e-02, -8.82472901e-04, 2.07106676e-03,
       1.41002086e-03, 8.91184958e-04, -4.02816851e-03, -9.62414406e-03,
       -4.33437526e-03, 2.74096150e-03, -5.58680203e-03, -1.06816990e-02,
       -1.32333059e-02, -1.20631624e-02, -6.90537458e-03,
       -5.05246827e-03, -4.18961653e-03, -1.00482404e-02, 2.12409440e-03,
       1.80174445e-03, -1.04229036e-03, 1.60380173e-03, -8.36911669e-04,
       -3.53854732e-03, -8.83752666e-03, -1.28137069e-02,
       -1.59395789e-03, 1.04978234e-02, 8.18423647e-03, -3.23637133e-03,
       -1.74609269e-03, -9.89264227e-04, -7.46702834e-04,
       -3.63858906e-03, -1.00897001e-02, 3.07642529e-03, 1.10782646e-02,
       1.53366092e-03, -3.41509143e-03, 6.58699498e-03, 5.78962918e-03,
       4.48514242e-03, 3.90242855e-03, -1.39416941e-03, -1.11798858e-02,
       1.09228038e-03, -4.59626579e-04, -4.15267376e-03, -3.47065367e-03,
       -2.60374742e-03, -7.37242866e-03, -8.42754263e-03,
       -1.50359338e-02, 1.86461675e-05, 5.11461403e-03, 5.36362454e-03,
       -6.02063199e-04, 6.51826523e-03, 4.88709705e-03, -2.81064957e-03,
       1.44583895e-03, 1.18083262e-03, 2.44427193e-03, -4.82227653e-03,
       -7.32916500e-03, -4.68930462e-03, -1.13814312e-03, 7.86373683e-04,
       6.04358560e-04, -2.82885041e-03, 9.01642663e-04, 5.48142660e-03,
       -6.30071992e-03, -4.54821531e-03, -2.04160810e-03, 8.63443303e-04,
       2.14029089e-04, 2.99995556e-03, 8.06985539e-04, 7.16306642e-03,
       2.38131289e-03, -2.94660125e-03, -5.51575143e-03, -6.77118404e-03,
       -4.38121753e-03, -3.45389196e-03, -8.14118423e-03,
       -7.15244375e-03, 5.57648297e-03, 1.20486962e-02, -6.15897030e-03,
       -7.88997766e-03, -5.35722589e-03, -5.59882121e-03,
       -3.37342848e-03, -6.49967417e-03, -5.69249596e-03, 1.16251819e-02,
       1.03929569e-03, -9.16060153e-03, -6.61895284e-03, -1.42288662e-03,
       -1.16831413e-03, -1.46616925e-03, -1.25736836e-03, 2.30997405e-03,
       5.04472433e-03, 2.09375797e-03, -5.85535076e-03, -3.10541410e-03,
       -7.41123629e-04, -5.58360759e-03, -7.65626552e-03,
       -3.36876418e-03, 8.10987665e-04, -5.98665967e-04, 1.07268859e-02,
       -9.51856375e-03, -7.85342325e-03, -2.02811067e-03,
       -3.82552808e-03, -2.62836227e-03, -7.06940237e-03,
       -7.93138333e-03, 6.04296336e-03, 9.38596111e-03, -6.38541020e-03,
       -6.25072839e-03, -2.81381467e-03, -8.07019137e-03,
       -5.87204238e-03, -7.06746709e-03, -6.36321027e-03, 6.06783386e-03,
       4.17210208e-03, 3.67382029e-03, 3.36003420e-03, 3.13251105e-04,
       -2.43719527e-03, -6.38735574e-03, -4.15450148e-03, 3.42805346e-04,
       4.62310482e-03, -2.20457092e-03, -1.24366023e-03, 1.49793585e-03,
       4.84857039e-04, -3.09120840e-03, -6.59447163e-03, -7.40382914e-03,
       -5.07430732e-03, -2.96536926e-03, 1.10723330e-02, 2.17823870e-03,
       -1.54922390e-03, -1.93492731e-03, -5.48487948e-03,
       -4.40088473e-03, -1.79621298e-03, -1.29527610e-03, 1.17780389e-02,
       -9.38845507e-04, -5.46305068e-03, -4.68766969e-03,
       -4.41636471e-03, -6.00436656e-03, -5.97394118e-03,
       -6.02973532e-03, -5.26680285e-03, 4.41269064e-03, 1.78165268e-03,
       1.04357128e-03, 2.15980294e-03, -1.22435938e-03, 4.20321850e-03,
       -5.38507896e-03, -1.02993823e-03, 2.62757530e-03, 3.17806192e-03,
       -3.28233349e-03, -1.86242675e-03, -3.53209348e-03,
       -5.50679769e-03, -4.03208565e-03, -9.00708884e-03, 4.31860145e-03,
       1.21544097e-02, 6.34541642e-03, -9.59103752e-04, -4.31502471e-03,
       -4.11763415e-03, -3.41106975e-03, 2.83738994e-03, -3.63922631e-03,
       -2.11593974e-03, -2.42198992e-04, 2.59253336e-03, -5.50524704e-03,
       -4.21949150e-03, -6.37395587e-03, -9.86594614e-03,
       -7.90532771e-03, -9.26083326e-03, -3.05867242e-03,
       -2.86119845e-04, -5.56893088e-03, -3.25808628e-03, 9.89786466e-04,
       -1.08451728e-04, 5.36738895e-04, 3.82459117e-03, -4.31930367e-03,
       9.66547709e-03, 2.00605169e-02, 9.01468564e-03, -1.02419406e-02,
       -7.79028097e-03, -7.11014029e-03, -8.30567814e-03,
       -9.96585470e-03, -1.63122080e-02, 1.16887297e-02, 1.49940550e-02,
       5.55974292e-03, -5.07995533e-03, -1.15205604e-03, -3.88566195e-03,
       -2.46648444e-04, -6.73684757e-04, -2.65030959e-03, 3.87370610e-03,
       7.71520101e-03, 5.20056987e-04, -1.67131945e-02, -1.00413617e-02,
       -1.44383963e-02, -8.44655558e-03, -8.44780914e-03,
       -1.29027730e-02, -1.70316664e-03, 6.05203258e-03, -8.45008343e-03,
       -8.18621088e-03, -8.42665602e-03, -5.57425199e-03,
       -8.75997543e-03, -8.07622820e-03, -1.47181917e-02, 1.18116410e-02,
       1.59621462e-02, 5.14041027e-03, -2.25086766e-03, -5.23703592e-03,
       -3.92059656e-03, -7.88391288e-03, -2.96757533e-03,
       -7.05587491e-03, 1.44987227e-02, 2.55870540e-02, 9.45784990e-03,
       -8.50476697e-03, -8.95809103e-03, -8.94071814e-03,
       -8.51133373e-03, -2.92796595e-03, -1.29009951e-02, 2.38813623e-03,
       8.69526155e-03, -4.87997150e-03, -3.17422906e-03, -4.67906799e-03,
       -5.26499050e-03, -9.38971620e-03, 1.16845791e-03, -9.86687560e-03,
       1.93471333e-03, 9.81247518e-03, -1.12596655e-03, -8.91544763e-03,
       -4.33759484e-03, -3.86110879e-03, -6.53904770e-03,
       -6.72050193e-03, -6.81490311e-03, 7.56590627e-03, 1.52473217e-02,
       -2.37040990e-03, 4.39821219e-04, -1.55357091e-04, -4.26984672e-03,
       -2.76466599e-03, 6.84959057e-04, -1.54603063e-03, 1.48924915e-02,
       1.26068285e-02, 7.61374971e-03, -5.83405234e-03, -5.71652316e-03,
       -9.55060124e-03, -1.18190385e-02, -8.12219176e-03,
       -8.83883052e-03, -2.27347948e-03, -1.92439242e-03,
       -7.48579251e-03, -8.59232037e-04, -7.30791083e-03,
       -1.25556141e-02, -6.17717113e-03, 2.09607999e-03, -5.12241339e-03,
       1.95626076e-03, 2.23987922e-03, 7.76464585e-04, -2.53530475e-03,
       5.99761435e-04, -5.79308672e-03, -6.25359034e-03, -1.13362195e-02,
       -6.36820355e-03, 4.41155396e-03, 1.13470256e-02, 2.59124395e-03,
       -9.06560512e-04, 8.85202782e-04, -4.59463429e-03, -8.06741230e-03,
       -8.10278486e-03, -4.56773350e-03, 8.72235373e-03, 1.10422783e-02,
       6.05801959e-03, 2.92800018e-04, -3.40371951e-03, -6.47034170e-03,
       -7.04724761e-03, -3.05775157e-03, -5.45084802e-03, 2.24635890e-03,
       9.17416811e-03, 6.99235126e-03, 2.55659735e-03, 7.25515187e-04,
       -3.46831605e-03, -4.12955787e-03, -2.71653198e-03,
       -4.17527976e-03, 2.79676984e-03, 9.04443953e-03, 5.86958881e-03,
       2.38026516e-03, 5.01044188e-03, -4.83181240e-04, 1.20509612e-04,
       -8.35700799e-03, -1.62797445e-03, 6.74935849e-03, 9.59637854e-03,
       3.41915945e-03, 2.02415022e-03, 7.93220568e-03, 3.75117728e-04,
       -6.07359083e-03, -1.50063839e-02, -4.85325931e-03, 9.07089488e-05,
       1.22069055e-03, -2.93563772e-03, 7.71335978e-03, 3.92587017e-03,
       -6.36087789e-05, -6.68117063e-05, -4.16227244e-03,
       -1.31897896e-03, 4.74963244e-03, 8.85252468e-03, 8.71708896e-03,
       1.14089325e-02, 4.95249033e-03, 9.51507303e-04, -3.94980935e-03,
       -1.27996895e-02, -5.59220323e-03, 1.23857532e-03, 3.21401726e-03,
       8.77737161e-03, -4.62918589e-03, -5.45697659e-03, -3.83653771e-03,
       -3.68730538e-03, -1.32174115e-03, -1.58398540e-03,
       -3.35038640e-03, -3.26559832e-03, 1.52244002e-05, -5.02993772e-03,
       -5.13878791e-03, -1.50944886e-03, 8.61659553e-03, 1.11311898e-02,
       8.16916022e-03, -1.80001618e-04, -4.34695277e-03, -4.21725493e-03,
       -9.12880583e-04, -3.82183655e-03, -3.13351047e-03,
       -1.70551217e-03, -1.00239844e-03, -4.62457724e-03,
       -4.70126048e-03, -5.59397647e-03, -5.67060430e-03,
       -5.60296932e-03, -4.39962093e-03, 1.89852595e-04, 8.72043334e-03,
       1.01983864e-02, 8.60044640e-03, -1.06926041e-03, -5.26752835e-03,
       -6.27616793e-03, -6.04590122e-03, -6.61655283e-03,
       -4.49197181e-03, 5.44046937e-03, 2.52157426e-03, 5.42449811e-03,
       -2.59613851e-03, -6.22642552e-03, -5.26618678e-03,
       -2.03865045e-03, -2.16588355e-03, -2.91526364e-03, 4.62265266e-03,
       9.71840043e-03, 1.93504710e-03, -1.43521628e-03, -4.43663867e-03,
       -1.96287548e-03, -6.49786228e-03, -5.53487288e-03,
       -1.68990460e-03, 5.72163472e-03, 2.05242424e-03, 5.68664679e-03,
       -4.33003064e-03, -6.75473129e-03, -7.74737680e-03,
       -3.32300621e-03, -5.57587342e-03, -1.18550344e-03, 1.42152177e-03,
       7.95464218e-03, 4.60826559e-03, -3.47157242e-03, -2.25735037e-03,
       -2.67309533e-03, -4.67152614e-03, 4.21221228e-03, 3.70385544e-03,
       6.32734736e-03, 2.02867053e-02, 2.35209754e-03, -3.19221104e-03,
       -1.78832980e-03, -2.19312822e-03, -9.44648497e-03,
       -3.80628517e-05, -6.77580421e-04, -1.47953350e-03,
       -9.37530131e-04, -8.07839632e-03, -9.99108516e-03,
       -8.68173596e-03, -8.60116724e-03, -3.03910510e-03,
       -1.79098977e-03, -3.61003494e-03, 1.96189643e-03, 1.82323586e-02,
       7.38285296e-03, 3.43204103e-03, 5.32052433e-03, -5.16923238e-03,
       -1.00767119e-02, -9.91505478e-03, -1.10911010e-02,
       -1.03734406e-02, -2.88553652e-03, -2.45286338e-03, 5.35111292e-04,
       1.55450928e-03, -1.05847521e-02, 9.18089785e-03, 1.15029672e-02,
       3.68567184e-03, 1.42723590e-03, 7.25110900e-03, -3.82343191e-03,
       -7.24989036e-03, -1.39248476e-03, 1.15786185e-02, 5.04438533e-03,
       -1.98925869e-03, -6.26372965e-03, -6.91877725e-03, 2.23127799e-03,
       -4.81267786e-03, -7.70772295e-03, -3.10343690e-03, 8.29219818e-03,
       1.34135708e-02, -1.79277326e-03, -7.49299489e-03, -4.87389555e-03,
       7.65937287e-03, 8.21676978e-04, 6.69141999e-03, 1.31174298e-02,
       1.13726621e-02, 9.77005903e-03, -2.76205270e-03, -7.22574443e-03,
       -5.68418344e-03, 2.18493724e-03, -7.91327003e-03, -5.43277478e-03,
       -1.35959906e-03, 6.72886055e-03, -3.10142408e-03, -8.89535411e-04,
       -3.49625666e-03, -6.62366254e-03, -7.28046149e-03,
       -6.94950344e-03, -5.48090739e-03, -3.29194055e-03,
       -1.36983779e-03, -2.80694221e-03, 2.85193673e-03, 5.77233871e-03,
       -1.66404794e-03, 8.07949051e-04, 1.77564262e-03, 5.68197714e-03,
       3.95113457e-04, -3.16344155e-03, -7.01490790e-04, -2.97817867e-03,
       -5.75321307e-03, -7.98387360e-03, -7.66637968e-03,
       -7.80680543e-03, -3.30636720e-03, -9.97993397e-04,
       -2.33642082e-03, -3.01548210e-03, -5.09288744e-04, 5.91377402e-03,
       2.50715390e-03, 2.25296523e-03, -1.75578927e-03, 6.11822680e-03,
       3.70994746e-03, -3.19043314e-03, -4.21922142e-03, -7.96605018e-04,
       -2.64335820e-03, -7.45054660e-03, -1.20805595e-02,
       -6.59883907e-03, -5.01588732e-03, -1.38266839e-03,
       -3.36069544e-03, 9.66107938e-03, 9.30242334e-03, 5.66474441e-03,
       6.80129277e-04, 2.87537230e-03, -3.11458774e-04, -1.47948950e-03,
       6.10320037e-03, 1.25213265e-02, -4.31679375e-03, -2.50904402e-03,
       -6.25047833e-03, -6.23705098e-03, -1.16364481e-02,
       -8.10575299e-03, -3.10047274e-03, -1.29355805e-03,
       -4.51222342e-03, 1.10911420e-02, 5.90071548e-03, -2.46996945e-03,
       8.37821513e-04, 2.82747415e-03, 1.00823957e-03, 7.43594719e-03,
       9.53652617e-03, 7.92852324e-03, 7.30931666e-03, -1.20948814e-03,
       -3.06924107e-03, -6.76369295e-03, -1.27656702e-02,
       -6.51780702e-03, -7.66909216e-03, -4.33451077e-03, 9.01794154e-03,
       1.39692696e-02, -4.26646043e-03, -5.73248649e-03, -5.39297983e-03,
       -9.67321638e-03, -5.49022574e-03, -8.22003465e-03,
       -1.01518510e-02, 1.32632395e-02, 7.52164470e-03, -5.40780649e-03,
       -9.18399915e-03, -7.38034304e-03, -1.32077141e-02,
       -7.23801740e-03, -3.53669585e-03, -1.66659767e-03, 4.75528045e-03,
       1.00274812e-02, -1.10352589e-02, -9.47437249e-03, -6.62633777e-03,
       -1.01287747e-02, -5.74419554e-03, -6.95456145e-03,
       -4.42798575e-03, 1.14383074e-02, 1.26278587e-02, -8.84246826e-03,
       -9.20213666e-03, -4.20952914e-03, -7.66126672e-03,
       -3.56768421e-03, -9.78261884e-03, -1.13517409e-02, 9.55874100e-03,
       1.14144962e-02, -8.16814136e-03, -9.06692818e-03, -5.96142700e-03,
       -1.09005524e-02, -7.83982128e-03, -1.06868437e-02,
       -1.14122462e-02, 9.19423904e-03, 6.16899924e-03, -1.22999568e-02,
       -1.07671991e-02, -4.14887117e-03, -8.41590948e-03,
       -4.86569619e-03, -1.03116678e-02, -9.53136198e-03, 9.50780977e-03,
       6.88869786e-03, -1.18575739e-02, -1.18809827e-02, -8.98172986e-03,
       -1.18404217e-02, -6.78246235e-03, -1.02950986e-02,
       -9.21888463e-03, 8.15778971e-03, 1.16540613e-02, -1.84767134e-03,
       -1.19508710e-03, -2.01631687e-03, -7.30596390e-03,
       -3.95376701e-03, -1.27109315e-03, -1.30126486e-03, 1.05515113e-02,
       -4.73226566e-04, -7.43996119e-03, -4.65973839e-03,
       -6.01331796e-03, -7.72028649e-03, -5.55483252e-03,
       -3.11544631e-03, -5.16209193e-03, 1.59249885e-03, 9.37889051e-03,
       -1.78333174e-03, -1.84039678e-03, -4.57250746e-03,
       -7.29224551e-03, -2.19748984e-03, -1.67440320e-03,
       -2.79943505e-03, 9.16386768e-03, 4.98475856e-04, -5.87660307e-03,
       -3.46155977e-03, -5.92565164e-03, -7.73212593e-03,
       -6.75854366e-03, -5.70910703e-03, -8.48182291e-03,
       -1.98192918e-03, 7.05643371e-03, -5.03371411e-04, 4.30219552e-05,
       -1.37973262e-03, 5.52788237e-03, -1.97536917e-03, 2.11509853e-03,
       8.05244839e-04, 6.19669864e-03, -1.40018633e-03, -2.68711965e-03,
       -6.03102986e-03, -8.16165376e-03, -8.44519492e-03,
       -7.07228016e-03, -2.79675657e-03, -1.86588499e-03,
       -2.53054965e-03, 5.43520600e-03, 1.28817768e-03, 1.65303412e-03,
       -2.18801061e-03, 6.28897594e-03, -1.11313944e-03, -2.05363001e-04,
       -6.34187250e-04, 5.21883229e-03, -4.02889540e-03, -2.10930128e-03,
       -2.83147255e-03, -7.90082384e-03, -8.09481181e-03,
       -9.20288637e-03, -6.34902157e-03, -3.94556811e-03,
       -2.82236631e-03, 4.26728628e-04, 2.38061161e-03, -6.04606001e-04,
       -4.67584061e-04, 1.93842768e-03, -2.62254057e-03, 5.12818899e-03,
       7.15957535e-03, 1.73497165e-03, -9.10461601e-03, -1.36844255e-03,
       -7.24277738e-03, -6.55281823e-03, 3.86946974e-03, -5.26901521e-03,
       -8.88183422e-04, 2.87606171e-03, -5.62512083e-03, 1.91805675e-03,
       7.97095988e-03, 6.08467543e-03, -2.38624704e-03, 2.31628004e-03,
       5.48341486e-04, -1.30919169e-03, 1.91718864e-03, 1.90434475e-05,
       -5.76311583e-03, 3.81964515e-03, -7.53170403e-04, -5.62649965e-03,
       4.10636095e-03, -6.47482090e-03, -8.79018381e-03, -2.43397569e-03,
       -9.54776816e-03, -4.67239274e-03, -2.09901528e-03,
       -7.18762213e-03, -8.70702788e-03, 4.06360487e-03, -8.37559719e-03,
       -2.93630525e-03, 9.66145017e-04, -5.23710949e-03, 1.17785926e-03,
       -1.49052637e-03, -5.03794709e-03, -5.09477081e-03, 4.09416668e-03,
       -4.36261669e-03, -3.59538593e-03, 3.35480174e-04, 1.02277228e-03,
       -5.85067132e-03, 3.64225969e-04, -3.51597671e-03, -9.38402489e-03,
       3.90955852e-03, -9.01465025e-03, -7.90606812e-03, -3.03482567e-03,
       -5.11894375e-03, -1.09955319e-04, -3.59326077e-04,
       -4.59543616e-03, -5.58556756e-03, 4.41502873e-03, -6.35419926e-03,
       -5.63698774e-03, -2.38627777e-03, 3.33735981e-04, 3.70492577e-03,
       -6.21298607e-03, -9.42158420e-03, -1.04918387e-02,
       -4.70692525e-03, -9.68597736e-03, -3.86700011e-03,
       -4.88240784e-03, 1.65106403e-03, 8.27293005e-03, -8.61769915e-03,
       -7.08288699e-03, -5.43686561e-03, 6.86960900e-03, -3.14321835e-03,
       -9.71139234e-04, -1.75655808e-03, 6.99570682e-03, 1.30316403e-04,
       -5.95833547e-03, -4.94376756e-03, -1.07350182e-02,
       -4.56118956e-03, -1.20910779e-02, -1.03920577e-02,
       -6.74577383e-03, 2.95956759e-03, 7.85263069e-03, -1.95617508e-03,
       -1.30127242e-03, -3.76987085e-03, 6.82330551e-03, -6.78171124e-03,
       -8.25555250e-03, -9.27064754e-03, 8.37319065e-03, 1.51141337e-03,
       -7.93386903e-03, -4.64532245e-03, -4.41533048e-03,
       -1.50194368e-03, -3.50538711e-03, -1.49502058e-03,
       -2.00616685e-03, 2.51064613e-03, 4.58260672e-03, -3.88407381e-03,
       -4.10140352e-03, -6.49539463e-04, 3.00883176e-03, -3.62468837e-03,
       -6.60710316e-03, -5.16096642e-03, 5.33341337e-03, 1.73295895e-03,
       -1.81337097e-03, -1.97651796e-03, -4.47003683e-03,
       -2.56172894e-03, -5.74110355e-03, -5.43998601e-03,
       -7.77930021e-03, 8.96017242e-04, 4.93480032e-03, -5.13731455e-03,
       -7.07973912e-03, -4.81183827e-03, 8.50083190e-04, -1.53494172e-03,
       -4.21918416e-03, -3.14644328e-03, 4.18505538e-03, 7.52040604e-03,
       -1.72871561e-03, -2.43673474e-03, 7.43614728e-05, -7.79357622e-04,
       -1.12887914e-03, -4.02308581e-03, -3.19544622e-03, 6.85255695e-03,
       9.86488257e-03, -1.54365040e-03, -2.66867480e-03, -5.43144532e-03,
       -9.39473044e-03, -7.56484037e-03, -4.02095867e-03,
       -3.44194495e-03, 9.83843021e-03, 6.07114751e-03, -2.83662532e-03,
       -3.52248712e-03, -1.38673862e-03, -1.63164490e-03,
       -4.62420750e-04, -1.95589941e-03, -1.61871151e-03, 6.18427107e-03,
       8.80799349e-03, -2.70266412e-03, -2.99408380e-03, -7.91910384e-03,
       -1.04574095e-02, -5.81916561e-03, -2.53920699e-03,
       -9.84203303e-04, 9.34954360e-03, -5.75936120e-03, -2.88743293e-03,
       -4.36480809e-03, -2.51488620e-03, 7.80211005e-04, -1.90092612e-03,
       -2.09099986e-03, -1.84404559e-03, -6.49013603e-03,
       -4.63509373e-03, 4.23516054e-03, 4.29245690e-03, 3.43919545e-03,
       1.05676437e-02, 2.98378919e-03, 3.52055114e-03, 2.58465018e-03,
       -6.30802428e-03, -7.48805795e-03, -3.36383400e-03,
       -7.41588790e-03, -3.13279312e-03, -3.64432548e-04, 3.32551729e-03,
       4.11435869e-03, 3.72186466e-03, -5.37909800e-03, -1.29373895e-03,
       4.75448370e-03, 6.79519773e-03, 4.60184412e-03, 1.05855716e-02,
       1.99057162e-03, 9.61404014e-03, 9.67748556e-03, -3.03859939e-03,
       -7.77383009e-03, 5.53101907e-03, 5.41097764e-03, 4.07403149e-03,
       2.38200789e-03, 2.13420135e-03, -1.53884024e-03, -1.69584539e-03,
       -1.04557099e-02, -3.85181978e-03, 6.66013744e-04, 1.92757929e-03,
       7.12868816e-04, 7.29197217e-03, 8.11433140e-03, 3.63482395e-03,
       6.59023225e-03, -5.39699430e-03, -6.49772631e-03, 9.08450317e-03,
       1.02815507e-02, 8.34177714e-03, 4.57841624e-03, -9.62446968e-04,
       4.99844144e-04, 3.87381576e-03, -7.80704757e-03, -7.21543189e-03,
       6.17340673e-03, 4.81053535e-03, 1.97849306e-03, 4.47479682e-03,
       3.22672026e-03, 7.59549066e-03, 1.26664443e-02, -3.85076716e-03,
       -8.74912925e-03, -4.35186597e-03, -5.09125320e-03,
       -5.70018264e-03, 6.69098878e-03, 5.76744275e-03, 1.18448371e-02,
       1.44124646e-02, -7.43073318e-03, -1.18502593e-02, -1.10552264e-02,
       -1.48302615e-02, -1.75837800e-02, -4.69223922e-03,
       -4.22132201e-03, 1.10122105e-02, 1.48015581e-02, -6.50604954e-03,
       -5.92019781e-03, -3.42302048e-03, -6.83742901e-03,
       -8.79011862e-03, -6.38794503e-04, 4.59883269e-03, 2.29516793e-02,
       2.05525253e-02, 1.23941293e-03, -9.61218029e-03, -7.67663680e-03,
       -9.09771677e-03, -1.46057950e-02, -8.46485142e-03,
       -6.85764616e-03, 2.11238395e-02, 2.67867036e-02, 4.75306157e-03,
       -3.45663819e-03, -9.68267955e-03, -1.20563144e-02,
       -1.48566719e-02, -9.45272855e-03, -1.14234844e-02, 3.83188133e-03,
       1.07821273e-02, -1.77953939e-03, -4.34676791e-03, -8.43753014e-03,
       -1.06292665e-02, -8.05917848e-03, -1.07107181e-02,
       -1.11687379e-02, -5.98560879e-03, 3.49152903e-03, -4.53103613e-03,
       2.03749118e-03, -4.30428470e-03, -6.03135582e-03, -1.29247317e-02,
       -9.28404648e-03, -1.00557385e-02, 2.20553298e-02, 3.29810046e-02,
       1.78275425e-02, -3.82250384e-03, -5.34531474e-03, -4.54373425e-03,
       -6.13176916e-03, -1.23164225e-02, -1.01241358e-02, 1.21638365e-02,
       2.66683493e-02, 8.64024926e-03, -5.22755878e-03, -5.08824177e-03,
       -6.48085074e-03, -1.06687853e-02, -1.32108089e-02,
       -8.92567076e-03, -5.12538757e-03, 3.14764632e-03, -5.32996841e-03,
       -1.20655838e-02, -7.68796727e-03, -3.92519962e-03,
       -8.73216195e-04, 2.06183852e-03, -1.08344026e-03, 1.53532822e-03,
       2.46157427e-03, -9.75570641e-03, -7.86218606e-03, -7.49995606e-03,
       -3.85210034e-03, -1.00105945e-02, -1.32711232e-02,
       -8.74226168e-03, 1.18822483e-02, 2.30584349e-02, 6.29044557e-03,
       -9.52952355e-03, -4.57059219e-03, 3.07396665e-04, 6.49741036e-04,
       6.01522508e-04, -1.00975158e-03, 1.31401215e-02, 1.77249014e-02,
       1.19089941e-03, -1.47494953e-02, -8.01068824e-03, -6.54683122e-03,
       -2.10860907e-03, -2.48010177e-03, -3.62652517e-03,
       -1.83495504e-04, 1.21490774e-03, -1.23152230e-02, 1.65873417e-03,
       8.94606696e-04, -2.30364059e-03, 4.63659549e-03, 6.31011836e-03,
       -2.20872089e-03, 3.45277740e-03, 4.72603180e-03, 3.98192962e-04,
       -9.70120262e-03, -4.07701451e-03, -2.87226576e-04,
       -1.26310636e-03, -2.02386035e-03, -3.88535275e-03, 7.90161267e-03,
       1.07066296e-02, -5.50320256e-04, -2.94137164e-03, 2.21471069e-03,
       4.94778669e-03, 5.32677770e-03, 6.50133286e-03, -3.45373899e-03,
       1.14343956e-03, 1.14860991e-02, 1.58280041e-03, 6.20640302e-03,
       -6.02280581e-03, -7.02732150e-03, -2.19916669e-03,
       -3.73525778e-03, -6.50003785e-03, -5.77418925e-03,
       -3.01037496e-03, 3.81819159e-03, 1.21700177e-02, -4.43326263e-03,
       -5.24030393e-03, -2.22778530e-03, -4.99991793e-03,
       -4.39092703e-03, -7.83897191e-03, -6.53558737e-03, 1.25654237e-02,
       -1.83456019e-03, -3.34972306e-03, 9.42516956e-04, 3.58594669e-04,
       -3.76335462e-04, -4.34751436e-03, -6.81266701e-03,
       -4.84936405e-03, 5.62782108e-04, 4.57080966e-03, 7.47960992e-04,
       3.03527503e-03, -5.32285776e-04, 7.32842658e-04, -2.24769441e-03,
       -4.24659485e-03, -6.38792571e-03, 3.96269746e-03, 8.17275699e-03,
       -6.25282386e-03, -5.81816351e-03, -2.07324210e-03,
       -3.10073164e-03, -1.21270434e-03, -6.87071960e-03,
       -8.84015113e-03, 1.21825030e-02, 6.53208094e-03, -5.31249307e-03,
       -5.76583855e-03, -5.17551927e-03, -6.18602522e-03,
       -1.92331395e-03, -5.16173895e-03, -5.16202021e-03, 1.04652578e-02,
       1.94987329e-03, 3.14748613e-03, -2.77626881e-04, -1.63711992e-03,
       -1.08681107e-03, -1.36434066e-03, -6.60507521e-03,
       -9.05181468e-03, 3.71918199e-04, -2.79377098e-03, 1.19534042e-03,
       -3.46138654e-03, -8.46516620e-03, -5.26699843e-03,
       -6.55372627e-04, -3.06154299e-03, -6.07282668e-03, 1.31006690e-03,
       1.26286857e-02, -1.55301357e-04, -1.39237870e-03, -3.95746762e-03,
       -4.61091986e-03, -1.57527858e-03, -1.19791355e-03, 2.71604187e-03,
       1.23396805e-02, 5.27124060e-03, -4.55978094e-03, -5.75218815e-03,
       -5.13357250e-03, -5.61726931e-03, -3.41901393e-03,
       -3.42030171e-03, -4.04161168e-03, 9.73880582e-04, 2.56579602e-03,
       -2.06154091e-05, -4.29600524e-03, -6.98773935e-03,
       -1.74759200e-03, 7.93908606e-04, 4.20531305e-03, 2.49168859e-03,
       3.37869022e-03, -5.25276735e-03, -5.19569963e-03, -7.50901410e-03,
       -7.41312793e-03, -2.79089133e-03, 4.84919728e-04, 2.19070143e-03,
       -1.64139515e-03, -1.67121692e-03, 2.57568574e-03, -3.39578604e-04,
       -2.58724182e-03, -3.73109407e-03, 2.17152294e-03, -3.33710760e-03,
       -4.00518300e-03, -4.17817710e-03, -5.67737094e-04,
       -4.63781832e-03, 2.39558867e-04, -2.81935744e-03, -8.34633689e-03,
       -6.92496402e-03, -8.48457403e-03, -5.87756699e-03,
       -4.26540477e-03, -6.46041567e-03, 1.54966384e-03, 2.42841057e-03,
       -7.65304430e-04, -6.35253405e-03, 4.02671471e-03, -1.35369634e-03,
       2.16639647e-03, 8.12805374e-04, 3.14483565e-04, 5.02589671e-03,
       1.05583472e-02, 5.04871691e-03, -9.85315442e-03, -4.33753897e-03,
       -5.84965711e-03, -4.41388553e-03, -3.15830903e-03,
       -4.24233126e-03, 9.08011920e-04, 8.33607372e-03, 3.87380528e-03,
       -3.33772367e-03, -1.00347085e-03, -3.32568132e-04,
       -3.87013424e-03, -2.10696761e-03, -5.03516244e-03,
       -8.80661141e-03, 5.37989847e-03, -1.63903448e-03, -1.32893817e-02,
       -8.36491119e-03, -7.55617581e-03, -1.26623455e-02,
       -8.62237066e-03, -1.56823099e-02, 8.31777975e-03, 1.82660948e-02,
       8.54843017e-03, -4.86423029e-03, 4.64558881e-03, 4.43562516e-04,
       -5.60266490e-04, 2.37500353e-04, -4.21848614e-03, 5.06355846e-03,
       1.32265370e-02, 1.05241435e-02, -1.73651967e-02, -1.04979035e-02,
       -9.58055444e-03, -7.78555451e-03, -9.21259820e-03,
       -1.01939617e-02, -4.08657826e-03, 9.58840176e-03, 3.29747121e-03,
       -1.27470102e-02, -3.52184661e-03, -7.37460889e-03,
       -7.67261395e-03, -7.84899760e-03, -8.16750433e-03,
       -1.88463426e-03, 9.83054843e-03, 3.20101739e-03, -9.37554892e-03,
       1.12872389e-04, -8.78971722e-03, -4.58651455e-03, -4.66600806e-03,
       -3.96136241e-03, 6.43344875e-03, 1.47005329e-02, 1.15350857e-02,
       -1.52274957e-02, -8.41428805e-03, -9.70313791e-03,
       -6.21538796e-03, -9.54427198e-03, -9.22974572e-03, 1.03695830e-02,
       2.60526668e-02, 1.52706159e-02, -7.31595047e-03, -3.58728995e-03,
       -8.33199639e-03, -4.13837936e-03, -5.71501674e-03,
       -2.59314198e-03, -7.62229599e-03, -3.17051396e-04,
       -1.28286495e-03, -8.06716271e-03, -7.89063796e-03,
       -1.00836111e-02, -8.22444726e-03, -5.04059438e-03,
       -6.02471363e-03, -4.35466500e-04, 3.33021302e-03, 2.85574049e-03,
       -4.63259360e-03, 7.51633313e-04, -6.47290330e-03, -1.08976644e-02,
       -5.40111726e-03, -1.72981131e-03, -2.19528470e-03, 1.44803748e-02,
       7.13614887e-03, -7.01416889e-03, -6.66758651e-03, -7.43856747e-03,
       -4.23665531e-03, -4.88791754e-03, -1.06854960e-02, 6.24640984e-03,
       1.13032525e-02, 1.41345486e-02, -2.52178311e-03, 7.04694830e-04,
       -2.91322614e-03, -5.07270591e-03, -4.11001965e-04,
       -6.53474766e-04, 7.01416750e-03, 9.54050291e-03, 3.05977836e-03,
       -4.76723025e-03, -3.33037949e-03, -5.96387452e-03,
       -5.44972392e-03, -1.66932109e-03, 1.68042036e-03, 6.04212796e-03,
       1.02652013e-02, 3.76904663e-03, -3.78802093e-03, -2.17349944e-03,
       -4.27374942e-03, -3.05340672e-03, 1.04819809e-03, 3.60854482e-03,
       3.67996120e-03, 1.00833587e-02, 4.76019457e-03, -7.15978537e-03,
       -1.25465523e-02, -7.92632252e-03, -6.35029050e-03, 1.05487090e-03,
       -2.47384119e-03, 7.12255342e-03, 1.06935687e-02, 9.17375833e-03,
       -5.99501142e-03, -1.06745884e-02, -9.15373582e-03,
       -4.99104243e-03, 1.39559864e-03, -7.23671692e-04, 8.75900406e-03,
       9.63423774e-03, 4.44176188e-03, -9.79670673e-04, -3.46891629e-03,
       -9.44668718e-05, -6.47916822e-05, 3.87273659e-03, 8.21824465e-03,
       7.86768831e-03, 3.17363977e-03, 1.60590175e-03, -4.80998447e-03,
       -1.23768141e-02, -3.49269039e-03, 1.04184542e-03, 5.76448673e-03,
       1.15300305e-02, 4.69989097e-03, 1.00293113e-02, 7.20542204e-03,
       -2.61537381e-03, -1.02554038e-02, -1.19831791e-04,
       -6.68351538e-04, 5.68270776e-03, 2.72717304e-03, -2.17863708e-03,
       1.01618981e-03, -2.48436758e-04, -5.68746869e-03, -1.51527487e-02,
       -5.93467243e-03, -1.64752651e-04, 7.46973325e-03, 3.50369653e-03,
       -3.08814982e-04, -3.48256232e-04, -3.28924134e-03,
       -8.99428618e-04, 1.83524669e-03, 1.95003778e-03, 3.08906776e-03,
       3.87231307e-03, -1.08283653e-03, -3.52759147e-04, 2.35922891e-03,
       4.63511422e-03, 2.94549670e-03, 7.99737126e-03, 3.45370849e-03,
       4.40137926e-03, 1.01124421e-02, -3.42519401e-04, -2.77532823e-03,
       -1.55672198e-04, -5.10077365e-03, -5.94701711e-03,
       -6.62189955e-03, -2.00959435e-03, -3.81445233e-03,
       -1.38847739e-03, -5.48668439e-03, -3.81014496e-03, 2.99023511e-03,
       -2.63397209e-03, -7.88576342e-03, 1.74391188e-03, -5.99116832e-03,
       -3.66529264e-03, 2.27098307e-03, -3.52615234e-03, -4.01736982e-03,
       4.32145968e-03, 8.58804397e-03, 7.33855553e-03, 5.64850075e-03,
       -8.13693274e-04, 2.51721521e-03, 1.21129407e-02, -5.11140737e-04,
       -4.36155451e-03, 4.43459814e-03, 2.37618154e-03, 1.09864410e-03,
       -9.86556523e-04, -5.65630035e-04, 9.71940719e-03, 1.75647028e-02,
       2.19646934e-03, -5.76125830e-03, 1.02600048e-03, 8.81401822e-04,
       -1.44772744e-03, -1.37107237e-03, -4.75874031e-03,
       -4.95978678e-03, 5.06426301e-03, -4.61361744e-03, -6.21444406e-03,
       4.04433114e-03, 2.67903297e-03, -1.39512983e-03, -3.61735490e-03,
       -6.74026692e-03, -1.94431923e-03, 9.13708378e-03, -1.71544706e-03,
       -7.94859603e-03, 2.96690152e-03, -3.04763555e-03, -4.06478299e-03,
       -5.34061436e-03, -5.82742447e-04, 1.00003080e-02, 1.45462779e-02,
       -2.70795613e-03, -3.99068138e-03, 1.71065913e-03, 1.84969977e-03,
       -1.30474847e-03, -6.47980720e-03, -3.35399085e-03, 1.50926756e-02,
       1.82433911e-02, 2.71411450e-03, -6.76756399e-03, 4.49926732e-03,
       3.66695109e-03, 1.40027807e-03, -5.94363455e-03, -8.59378185e-03,
       -2.33623898e-03, 5.39347064e-03, -6.66082464e-03, -3.24502611e-03,
       9.09246877e-03, 6.09821407e-03, 3.82614974e-03, -8.10821448e-03,
       -8.23710393e-03, -1.35136151e-03, 4.81202360e-03, -9.04548634e-03,
       -4.81117144e-03, -1.43699651e-03, -1.00737205e-03,
       -1.06681103e-03, -5.10690222e-03, -3.81306210e-03, 1.19254170e-02,
       2.13331468e-02, 1.51198253e-03, -6.71029510e-03, -3.83649068e-03,
       -3.11029074e-03, 3.69023182e-04, -1.02460999e-02, -7.05916993e-03,
       1.02942744e-02, 2.44655870e-02, 3.59426741e-03, -5.55985887e-03,
       1.96388387e-03, 2.43501738e-03, 4.18926449e-03, -5.10832854e-03,
       -3.17986379e-03, -1.93350285e-03, 4.35803551e-03, -6.70141215e-03,
       -6.25155773e-03, -5.20449357e-05, 2.91977869e-03, 3.33787594e-03,
       -8.08267761e-03, -4.99855308e-03, 2.17753951e-03, 9.27273277e-03,
       -9.57905606e-04, -1.24275014e-02, -7.36607192e-03,
       -4.63080080e-03, -6.36097929e-03, -1.33474721e-02,
       -1.06451828e-02, 8.92809220e-03, 2.39573400e-02, 1.05556473e-03,
       -1.29669523e-02, -7.00658699e-03, -4.55197226e-03,
       -6.40456518e-03, -6.37682900e-03, -4.57054470e-03, 1.21550886e-02,
       2.02192366e-02, -3.08980979e-03, -5.45661198e-03, -1.38280098e-03,
       -7.28195067e-04, -2.61124293e-03, -6.14779862e-03,
       -6.07238384e-03, 4.78123222e-03, 1.04028648e-02, 1.83747718e-04,
       -4.40473808e-03, -2.17171875e-03, -4.44126641e-03,
       -2.94176117e-03, 6.68380468e-04, -3.47675662e-03, 8.90631787e-03,
       1.43027883e-02, 4.26648359e-04, -1.21308248e-02, -5.16245468e-03,
       -3.96509282e-03, -4.72338498e-03, -2.43438547e-03,
       -1.86767359e-03, 7.64140440e-03, 1.49341589e-02, -2.79364083e-03,
       2.13153684e-03, -2.36365036e-03, -3.85088963e-03, -5.26962616e-03,
       -1.73645024e-03, -1.47880532e-03, 2.77217710e-03, 1.88079644e-02,
       7.32187787e-03, -6.28140615e-03, -6.77396357e-03, -9.79199074e-03,
       -8.20789114e-03, -4.04124614e-03, -6.29466306e-03, 3.26078362e-03,
       1.64935235e-02, 3.14821093e-03, 3.80128832e-03, -5.64664882e-03,
       -1.05058523e-02, -9.75848362e-03, -9.41109098e-03,
       -2.67261546e-03, 1.17340987e-03, 1.55644286e-02, 7.48777529e-03,
       3.81534360e-03, -3.74717033e-03, -2.85427039e-03, -4.85515082e-03,
       -3.23481089e-03, -2.63692369e-03, -1.45977468e-03, 4.28713718e-03,
       7.77378585e-03, 2.96093710e-03, -1.23283349e-03, 2.16293716e-04,
       -3.77169694e-03, -4.33112727e-03, -5.14738588e-03,
       -3.50905745e-03, -1.69625576e-03, 4.41098353e-03, 7.49360397e-03,
       -5.26667479e-03, -9.62324254e-03, -7.32769491e-03,
       -7.39516225e-03, -1.84418436e-03, -3.53214820e-03, 4.89301048e-04,
       9.85575467e-03, 7.21367914e-03, -4.17101849e-03, -8.43641534e-03,
       -7.32351746e-03, -9.54129174e-03, -3.15149175e-03,
       -6.90953713e-03, -3.46275792e-03, 7.77818682e-03, 6.82081841e-03,
       4.79547959e-03, 2.94885854e-03, -1.81354175e-03, -1.75942061e-03,
       -2.86927284e-03, -4.41299286e-03, -5.10338740e-03, 6.21819496e-03,
       9.42628924e-03, 8.02065525e-03, 9.36980243e-04, -4.62859450e-03,
       -6.15578191e-03, -2.79456796e-03, -4.79650730e-03,
       -5.58562856e-03, 6.46704761e-03, 9.78335273e-03, -2.65864842e-03,
       -4.23637591e-03, -3.43094603e-03, -6.35172008e-03,
       -2.92533846e-03, -6.97750552e-03, -5.34102926e-03, 7.37325707e-03,
       6.51347777e-03, 3.62217240e-03, -1.29122648e-03, -3.95320356e-03,
       -1.29012074e-02, -6.29638508e-03, -9.16803628e-03,
       -1.46769201e-02, 4.92607616e-03, 1.09540587e-02, 7.74099631e-03,
       2.38669687e-03, -2.46772985e-03, -1.61718251e-03, 1.63451245e-04,
       3.07103212e-04, -4.02554031e-03, 6.86774729e-03, 7.01424759e-03,
       1.55087013e-03, -9.93409893e-04, -2.32317531e-03, -6.99768192e-04,
       7.04517151e-05, 6.57299242e-04, -3.65317357e-03, 3.46935354e-03,
       5.93850622e-03, 8.10670573e-03, 9.53298120e-04, -2.61801248e-03,
       -1.00379502e-02, -3.93472658e-03, -4.38328460e-03,
       -1.23640634e-02, 1.78194791e-03, 3.92933656e-03, 5.60228201e-03,
       3.65769170e-04, -2.86113727e-03, -4.33827192e-03, -3.73661751e-03,
       -2.21415190e-03, -8.75642337e-03, -1.55123987e-03, 5.78585081e-03,
       2.64596590e-03, -1.80687651e-03, -5.64613426e-03, -4.01572278e-03,
       -3.98234744e-03, -3.45886522e-03, -3.40568810e-03, 1.20846431e-04,
       4.24570426e-05, 4.18159971e-03, -7.35629292e-04, -3.93662741e-03,
       -1.82400923e-03, -3.35309096e-03, -5.75377792e-03,
       -4.58347751e-03, -6.56026974e-03, 4.33951477e-03, 4.33867704e-03,
       -2.31529959e-03, -5.45052532e-03, -2.91121774e-03,
       -5.03504882e-03, -5.29766269e-03, -7.79993972e-03,
       -5.64503903e-03, 5.01400733e-04, 4.19067312e-03, 4.79455302e-05,
       -2.32989178e-03, 9.53996030e-04, -2.73011439e-03, -9.16599669e-03,
       -9.29156877e-03, -4.50220658e-03, 8.00940325e-04, 1.05146617e-02,
       4.15410381e-03, -1.22653274e-03, 8.08080938e-03, -3.02316126e-04,
       -3.12874746e-03, -3.33295343e-03, -8.66214558e-03,
       -3.11571243e-03, 9.52732470e-03, 1.83778466e-03, -1.38906157e-02,
       -1.09591559e-02, -8.86634458e-03, -6.15463825e-03,
       -9.09170974e-03, -1.72589831e-02, 3.64407781e-03, 1.24425553e-02,
       2.08587782e-03, 8.31031764e-04, 1.36682978e-02, 3.56851472e-03,
       -6.27119187e-03, -6.74769562e-03, -3.89839103e-03, 9.13678494e-04,
       7.39660906e-03, -7.52817956e-04, -9.75034293e-03, -2.14412692e-03,
       -5.90707967e-03, -6.14468986e-03, -6.45324215e-03,
       -9.07746051e-03, 2.85395328e-03, 1.61208007e-02, 1.09368609e-02,
       -8.56393948e-03, -9.98147298e-03, -5.40693337e-03,
       -4.00976138e-03, -8.76008254e-03, -1.47729656e-02,
       -2.14139721e-03, 1.78237893e-02, 1.14396662e-02, -1.38535828e-03,
       -2.41585262e-03, 1.77130823e-05, 1.30225570e-04, -5.76847559e-03,
       -1.29149696e-02, -1.27593987e-03, 1.20440982e-02, 6.13579014e-03,
       -2.16102297e-03, -4.71808045e-04, -8.35461426e-04,
       -4.83034266e-04, -6.50409097e-03, -1.30261825e-02,
       -4.35102498e-03, 8.61010235e-03, 6.79698261e-03, 2.63401726e-03,
       2.99016200e-03, 5.51736588e-03, 2.63188477e-03, -4.65444056e-03,
       -1.06956353e-02, -1.95089669e-03, 1.25024384e-02, 8.01066589e-03,
       -1.36401155e-03, -1.33153645e-03, -1.29782909e-03,
       -6.96229108e-04, -2.66204146e-03, -1.01576839e-02, 8.45368602e-04,
       7.06452411e-03, 5.40591404e-03, 2.17473670e-03, -2.51271436e-03,
       -6.31100324e-04, -1.47798669e-03, -4.15888993e-04,
       -2.73324735e-03, -3.92157305e-03, 5.93880843e-03, 5.42204315e-03,
       2.37205764e-03, 2.54211918e-04, 1.03821326e-03, -1.15945993e-03,
       -2.37584091e-03, -9.47738905e-03, -2.46269628e-03, 7.25034042e-04,
       1.66906265e-03, 4.68832487e-03, 4.71788138e-04, -3.78671211e-05,
       -5.68880094e-03, -4.35308786e-03, -5.66891395e-03, 3.49282660e-03,
       5.81305427e-03, 4.41999873e-03, -5.89601295e-05, -1.05312262e-02,
       -3.76594532e-03, -1.03515142e-03, 3.16562457e-03, 1.52625528e-03,
       6.92963740e-03, 8.23140796e-03, 7.47727370e-03, -2.44711246e-03,
       -8.72496422e-03, -5.64981252e-03, 7.60719122e-05, 6.20783493e-03,
       5.17066242e-03, -8.53590027e-04, -1.27315789e-03, -7.81510142e-04,
       -9.89479362e-04, -7.20565114e-03, 2.09456217e-03, -9.36968252e-04,
       3.36037861e-04, -4.90451814e-04, 1.27797097e-03, 4.35263291e-03,
       3.53607396e-03, -5.63131273e-03, -9.84239671e-03, -1.53097301e-03,
       1.83183735e-03, 1.23924564e-03, 2.50343955e-03, 8.68124049e-03,
       7.97437970e-03, 4.98371106e-03, -9.98660922e-04, -1.14271650e-02,
       3.38427024e-04, 9.81570920e-04, 6.51403936e-03, 6.60976395e-03,
       3.69559904e-03, 2.66070571e-03, -1.12475909e-03, -4.59449971e-03,
       -1.08569544e-02, -2.35499511e-03, 4.09196364e-03, 5.52826887e-03,
       4.99464478e-03, 3.64800938e-03, 5.54105779e-03, 3.82927386e-03,
       -5.64149860e-03, -1.30995456e-02, 9.05948866e-07, 1.77415647e-03,
       1.83403853e-03, 4.15632455e-03, -1.71398791e-03, 3.38654662e-03,
       -1.48208125e-03, -6.19295333e-03, -1.00480402e-02,
       -8.09619960e-05, 2.98908865e-03, 1.91081781e-03, -4.67018137e-04,
       3.66781186e-03, 4.55789408e-03, -3.63469310e-03, -7.57727306e-03,
       -9.33155417e-03, -2.25245394e-03, -8.43970280e-04, 1.86464749e-03,
       2.30577658e-03, -1.22569560e-03, 2.66100536e-03, -2.21622619e-03,
       -1.16986278e-02, -6.91062026e-03, -5.79049578e-03, 1.10916677e-03,
       4.04903665e-03, 2.18102639e-03, 7.94386771e-03, 2.87269568e-03,
       -8.44432914e-04, -6.23454433e-03, -8.74633435e-03,
       -2.29255995e-03, 1.81931315e-03, 9.87078436e-03, 1.11260163e-02,
       1.01184687e-02, 2.00820970e-03, -2.05904036e-03, -9.62557085e-03,
       -1.81673304e-03, -8.48925114e-03, -2.43343390e-03, 2.50615249e-03,
       1.06069334e-02, -4.52466216e-03, -7.33032648e-04, -1.45976257e-03,
       -6.09864667e-03, -4.54886025e-03, -8.27799924e-03,
       -1.09698356e-03, 5.79253584e-03, 8.35506013e-04, 1.36670389e-03,
       4.71507618e-03, 5.12753753e-03, -5.12258103e-03, 1.05696288e-03,
       -9.40472074e-03, -3.41757108e-03, 7.95107614e-03, 4.81210090e-03,
       7.22891139e-03, -9.06196132e-04, -6.09698799e-03, -8.84134788e-03,
       -7.17914430e-03, -5.10078855e-03, -1.89088911e-04, 5.79256238e-03,
       1.14714075e-02, 1.43415956e-02, 3.48209753e-03, -9.93023743e-04,
       -6.86847093e-03, 2.09558682e-04, -4.97097708e-03, 1.13510294e-03,
       1.09309377e-02, 1.77339260e-02, -1.26686378e-03, 6.03340846e-03,
       7.64304074e-03, 2.26668059e-03, -7.14197848e-03, -8.58929660e-03,
       -6.31934218e-03, 5.66294650e-03, -4.00719291e-04, 7.31858832e-04,
       7.61131058e-03, 7.92502146e-03, 5.24125993e-03, -4.53815144e-03,
       -4.47092904e-03, 1.77826209e-03, 1.02488520e-02, -2.88194104e-04,
       9.57729947e-03, 2.76195235e-03, 1.52532035e-03, -5.70205832e-03,
       -8.04671831e-03, -3.79286427e-03, -3.08717834e-03, 6.77457126e-03,
       1.05806105e-02, 1.01368241e-02, 2.38615531e-03, 3.32291750e-03,
       -7.82977440e-04, -7.78260082e-03, -3.26842710e-04,
       -2.74705607e-03, 5.73276961e-03, 8.67869612e-03, -2.46642693e-03,
       2.43252097e-03, 2.05913302e-03, 1.89010613e-03, -1.10937504e-03,
       -1.11744367e-03, -5.80508437e-04, 6.35425327e-03, -2.16505351e-03,
       3.74377891e-03, 3.13843600e-03, 2.75044539e-03, 5.54788066e-03,
       2.13682023e-03, 1.59859483e-03, 5.57858869e-03, 5.33094257e-03,
       3.25711793e-03, 6.38976879e-03, 2.32949015e-03, 1.00214826e-03,
       -9.95939597e-04, -5.43286745e-03, -2.59498577e-03,
       -7.77855609e-03, -8.70108954e-04, 6.42188173e-03, 6.90128841e-03,
       1.31231023e-03, 1.62997388e-03, 2.65746983e-03, 1.54511083e-03,
       2.12432165e-03, -3.45522841e-03, 3.54488357e-03, 7.56395236e-03,
       -1.42777886e-03, -1.52339708e-04, 4.37043491e-04, 9.23731306e-04,
       1.21449667e-03, 3.62928957e-04, 1.05625112e-03, 6.94948772e-04,
       -1.16375100e-03, 7.03922007e-04, 5.11123275e-04, -2.63073714e-03,
       -8.67105613e-04, -3.67629202e-03, -1.23697473e-03,
       -1.21874060e-03, 4.38213861e-03, 2.18871445e-03, 1.67717040e-03,
       -3.75421112e-03, -1.94590853e-03, 6.36527955e-04, 1.34086655e-03,
       2.92373006e-03, 2.09376565e-04, 2.78068404e-03, 2.31304369e-03,
       7.62247667e-03, -1.48341613e-04, -1.66756928e-03, 1.81282964e-03,
       -5.14738401e-03, -4.76441812e-04, -1.15553744e-03, 1.36228092e-03,
       9.26675554e-03, 4.63364786e-03, -3.82479443e-03, -4.06696834e-03,
       -1.96252181e-03, -1.92600698e-03, -4.71413881e-03,
       -4.68069268e-03, 8.47813673e-03, 8.64821207e-03, 7.73708010e-03,
       -3.29105905e-03, -3.90249235e-03, -1.63363572e-03, 4.93230822e-04,
       -4.85499593e-04, -3.66463629e-03, 1.46667019e-03, 1.00115007e-02,
       6.69328915e-03, -2.55943090e-03, -2.34162854e-03, -1.35526829e-03,
       -6.67631626e-03, -4.34224959e-03, -4.65789996e-03, 1.30466888e-05,
       8.49487353e-03, 6.07915048e-04, -2.13278853e-03, -2.66806665e-03,
       1.03864202e-03, 2.13807658e-03, -3.21840961e-03, -1.55832048e-03,
       7.65871431e-04, 6.05856720e-03, 8.94813519e-03, -2.85173533e-03,
       -5.38931508e-03, -9.17389698e-04, 2.13657552e-03, 1.10189815e-03,
       -6.20443374e-03, -3.30405380e-03, 9.38274711e-03, 6.31880434e-03,
       -6.77925441e-03, -6.47058757e-03, -1.48666336e-03,
       -2.52520805e-03, 2.80603976e-03, -3.47211258e-03, -4.21920000e-03,
       6.35676226e-03, -3.39581573e-04, -3.31757893e-03, -2.57875212e-03,
       2.11121049e-03, 1.78259052e-03, -1.69869966e-03, -6.12839358e-03,
       -3.97644052e-03, 3.45542934e-03, -4.36840998e-03, -5.40509354e-03,
       -3.40851978e-03, 3.77617404e-03, -2.40824674e-03, 2.78411456e-03,
       -7.15175644e-03, -8.90066568e-03, 5.53839316e-04, 1.11094434e-02,
       -4.80112107e-03, -4.73485654e-03, 1.55835378e-03, -5.00914524e-04,
       4.32695914e-03, -7.13092508e-04, -3.34675051e-03, 8.51049554e-03,
       8.57258774e-03, -5.45163685e-03, -7.12499581e-03, -2.34350958e-03,
       -7.62793701e-03, -3.03918961e-03, -3.91949899e-03,
       -9.40435193e-03, 4.46730061e-03, -2.83775525e-03, -5.46725420e-03,
       -3.31926765e-03, 6.80481642e-03, 1.56007370e-03, 7.55651621e-03,
       8.08605226e-04, -4.79148282e-03, 7.92529958e-04, -4.41278983e-03,
       -8.27904139e-03, -5.95046300e-03, 2.98551796e-03, -5.75334392e-03,
       8.65426264e-04, 3.51903238e-03, -3.61136929e-03, -1.78745785e-03,
       1.02079930e-02, 8.90629250e-04, -1.63335481e-03, -3.13284225e-04,
       -7.35563086e-03, -2.61403644e-03, -2.27451581e-03,
       -7.16739846e-03, 4.58025560e-03, 1.00134946e-02, 7.78314751e-03,
       1.72253861e-03, -3.47145018e-03, -3.78508051e-03, -4.76254907e-04,
       -1.39993406e-03, -6.22153003e-03, 3.99954803e-03, -2.64865370e-03,
       -4.64995252e-03, -3.46687390e-03, 3.55591392e-03, -2.63077766e-03,
       4.13935923e-04, 3.14036757e-03, 1.28430931e-03, 7.46883685e-04,
       7.09496089e-04, -3.31240450e-03, -1.60384562e-03, 1.37391943e-03,
       -3.95437516e-03, 3.42209078e-03, 1.62088580e-03, -1.53706782e-03,
       -3.05290625e-04, 8.22354667e-03, 2.67947791e-03, 1.52266133e-04,
       -5.53293386e-03, -3.03979055e-03, -2.58814776e-03,
       -2.64607649e-03, -7.17813382e-03, -9.20025705e-05, 7.08108163e-03,
       3.93090490e-03, -1.32674279e-04, -2.01684819e-03, 6.76015858e-03,
       2.73295725e-03, -4.84667439e-03, -4.72128484e-03, 2.36289669e-03,
       4.82266361e-04, -2.75468268e-03, -2.79125012e-03, -4.61959653e-03,
       -5.10948105e-03, -1.55857916e-03, -1.12768197e-04,
       -4.19937121e-03, -3.65482131e-03, 1.55704224e-03, -2.95852642e-05,
       -1.10768934e-03, -2.44352245e-03, 1.91205810e-03, 5.93360106e-04,
       -3.79892159e-03, -2.65144790e-03, 1.75722362e-03, 3.78280063e-03,
       4.38111695e-03, -1.44130073e-03, -4.55044850e-04, 1.67682674e-02,
       5.01033850e-03, -4.74292319e-03, -3.52098374e-03, 1.38792719e-04,
       1.40622107e-03, 7.63609679e-03, -2.37235753e-03, -7.10998429e-03,
       2.41634971e-03, -4.49602213e-03, -3.03131971e-03, -4.24892036e-03,
       -5.62644657e-03, 1.28327892e-03, -7.80108850e-04, -2.14238558e-03,
       5.43274975e-04, 9.86563601e-03, 2.45709717e-03, -4.48977295e-03,
       -3.94468289e-03, -1.52336562e-03, 1.03147980e-03, 1.99489715e-03,
       -4.44348250e-03, -6.05815323e-03, 9.16989957e-05, -6.48738211e-03,
       -3.86917032e-03, -6.13817526e-03, -5.29497303e-03, 2.07184721e-03,
       9.78288986e-03, 4.14003991e-03, -2.01090798e-03, -1.36674801e-03,
       -6.61263650e-04, -5.56469080e-04, -2.27891002e-03,
       -4.20876034e-03, -1.63080334e-03, 8.72772839e-03, 6.25243317e-03,
       1.42134097e-03, 4.09619790e-03, 5.59041789e-03, 2.95320060e-03,
       -2.89607444e-03, -6.01141574e-03, 2.59032403e-03, 6.64068991e-03,
       -1.47085748e-05, -7.75445160e-03, -7.62873469e-03,
       -2.70941644e-03, 6.40686194e-04, 1.36378896e-03, -4.10929701e-04,
       -1.12714525e-03, 3.75481159e-03, 4.96229297e-03, -5.09152422e-03,
       -4.42152517e-03, 3.75187420e-03, 1.63583073e-03, 2.61791400e-04,
       -3.44709982e-03, -4.17463481e-03, 5.49783371e-03, 4.08816198e-03,
       2.68275558e-04, 3.81342950e-03, 7.77597772e-03, 2.80993455e-03,
       -2.71028653e-03, -9.15558916e-03, -2.90035150e-05, 3.09215859e-03,
       1.47617294e-03, 3.91564611e-03, 5.09963883e-03, 4.74329619e-03,
       -2.07746256e-04, -5.96759887e-03, -8.91158916e-03,
       -8.33939819e-04, 2.38124933e-03, 4.41023894e-03, -3.66907497e-03,
       1.48947653e-03, 5.30831004e-03, -3.29236609e-05, -4.10363218e-03,
       -6.83108997e-03, -1.42110733e-03, 4.15520370e-03, 3.01653077e-03,
       -2.20962707e-03, 1.94440293e-03, 5.32337744e-03, 2.02481722e-04,
       -3.05526936e-03, -5.54534467e-03, -1.83024607e-03, 9.02610889e-04,
       9.67152475e-04, 7.34117290e-04, 1.56016566e-03, 3.89057118e-03,
       2.11489573e-03, -2.41951505e-03, -4.27028211e-03, -1.56827806e-03,
       2.34379852e-03, 2.78081745e-03, -3.15127755e-03, -3.04500386e-03,
       6.59762241e-04, 7.79821712e-04, 9.77837317e-06, -1.06758741e-03,
       -1.46009363e-04, -3.98762524e-04, 2.60029524e-03, -1.07237068e-03,
       -1.18477806e-03, 2.68607307e-03, 6.66021602e-04, -3.67237430e-04,
       -1.32541143e-04, 2.25614384e-03, 2.02094880e-03, 3.98339471e-03,
       2.94060184e-04, -3.33859073e-03, -3.91982496e-03, 1.10998424e-03,
       2.73961318e-03, 1.09027338e-03, 3.60676879e-03, 7.95336068e-03,
       4.33198549e-03, -3.00982548e-03, -9.95953847e-03, -5.25854062e-04,
       1.51855662e-03, 2.11800286e-03, 2.78535346e-03, -2.70347955e-04,
       5.51026547e-03, 2.57490086e-03, -1.32451544e-03, -6.19559130e-03,
       6.59392623e-04, 2.59829289e-03, 3.10549652e-03, -6.54489966e-04,
       5.99903986e-03, 8.51822272e-03, 6.22844975e-03, 1.21911080e-03,
       -8.28538183e-03, -3.24316486e-03, 2.44637602e-03, 2.47954857e-03,
       2.72295228e-03, -1.12902536e-03, 3.44970101e-03, 3.25956428e-03,
       3.87775968e-03, -4.70330380e-03, 2.28192261e-03, 4.44115931e-03,
       1.44463219e-03, -1.38256908e-03, -5.14751971e-01 ]
